svm_type c_svc
kernel_type linear
nr_class 34
total_sv 1148
rho -1.66858 0.0749265 -2.2356 -0.157493 -1.12977 -1.04266 -0.096524 0.218082 0.12007 -0.780998 0.444272 -2.3753 -1.13105 0.179604 0.130846 -0.220797 -0.890336 -0.945599 -0.517707 -0.23006 0.102499 -0.626771 -0.180998 -0.55416 -1.42202 -0.737265 -2.16067 0.00162738 -0.492189 -0.498294 -0.0996303 0.355177 -0.195104 2.09635 -0.0514304 1.20801 0.805683 2.47318 2.60282 1.50893 1.96249 0.65321 1.90895 1.42863 4.22206 1.68694 1.54428 1.42285 1.55974 2.23012 1.29821 1.24348 1.4304 0.877244 1.73872 1.52291 2.25443 1.18931 0.583668 1.59587 2.05065 1.23701 1.8763 1.66175 0.399111 -1.93664 0.341278 -1.09569 -1.26639 -0.0711722 0.433707 0.514952 -0.562693 0.623885 -0.987115 -0.992486 -0.0871346 0.372143 0.0996385 -0.996018 -0.967509 -0.151623 0.0891771 -0.0650912 -0.652713 -0.0471577 -0.159175 -1.1132 -0.156017 -1.86286 0.0257423 -0.00817727 -0.57664 0.0704583 0.280054 -0.321731 0.936245 0.537411 4.69453 2.11221 1.14087 1.2208 0.479598 1.73749 2.9249 2.47991 1.50045 1.09669 1.45349 2.44706 2.20328 1.04212 0.874636 1.52966 0.487492 1.33537 0.834719 3.10987 1.52225 3.54511 1.07318 1.44554 0.980278 1.66488 1.43958 0.295511 -0.993504 -0.460041 0.202894 1.43675 1.07197 -2.31419 1.02985 -0.62154 -1.03999 1.02774 0.169384 -0.1385 0.0156171 -0.457063 -0.485907 1.08155 0.503448 -2.28515 -0.092781 -0.757289 -0.645584 -0.144418 -0.837997 0.0499542 -1.70803 -0.689852 -0.0286382 0.999644 -0.361468 0.467957 2.46194 1.53808 1.70926 0.450139 1.62781 0.166277 0.58412 2.39203 1.42947 1.83681 1.08525 1.10658 0.960253 1.07909 1.50576 -0.0727526 5.23323 0.723434 0.1778 0.704321 -0.514337 1.46621 1.04038 0.754868 1.13726 1.46298 0.337493 0.814322 1.04757 1.06585 0.0595323 0.988456 -0.26437 -1.06354 0.86337 0.792172 0.412591 -0.708928 0.095357 0.428496 0.544647 0.709885 -0.14654 0.792792 0.162755 -0.928484 0.566279 -3.34323 0.609863 0.564306 0.150825 0.871116 0.812798 0.163109 0.586567 -0.164485 -1.06396 0.545364 -1.1368 -1.57043 -0.112513 0.286383 -0.348314 -0.721054 -2.30031 -0.795433 -0.0745252 0.142211 -1.25263 -0.118941 -1.01173 -1.38595 -0.205483 -2.08609 0.208504 -0.848298 -1.3343 0.0543682 0.456652 -0.114112 -0.0275501 -2.68063 -0.0299601 -0.893234 -1.37041 -0.197907 -1.3528 -0.697019 -0.634247 -0.900779 -1.23421 -3.1008 -0.690865 -2.46484 -1.00786 -1.4329 -0.938374 -0.555561 -1.17444 -1.37857 -2.19766 -1.44826 -0.35194 -0.282158 -2.04349 -3.33939 0.938105 -0.769271 -2.00556 0.782329 -0.771236 -0.398926 -0.543721 -0.869967 -1.47239 -1.61646 0.0430964 -3.01292 -0.793997 -1.63915 -0.931716 -0.494025 -1.26662 -0.452168 -6.56767 -1.3255 -0.204222 0.804578 -0.981194 1.73322 -0.0238854 -0.000992135 2.97552 3.47054 0.702608 0.889307 0.278458 0.951037 2.76639 1.66821 0.0379032 0.817264 1.14965 -0.0405161 0.494268 -0.420669 2.91396 0.696201 0.419689 0.815786 1.99597 0.429746 -1.38158 -1.35443 -0.425458 -0.441062 -0.850699 -1.18543 -1.05079 -1.13374 -0.678462 -1.84007 -1.7511 -0.606877 -1.20714 -1.16493 -1.84395 -1.61724 -0.836036 -1.39338 -1.14519 -0.615868 -0.645296 -0.35481 -0.228956 1.1455 0.71393 0.660916 -0.822178 0.0627806 0.381617 0.535821 1.01734 -0.0483528 0.561372 0.257544 -0.390374 0.902071 -3.58331 0.738784 0.535434 0.212761 0.777869 1.08539 0.189183 1.53558 1.85208 0.93562 -0.236849 0.63017 0.49615 0.995568 1.13236 -0.598968 1.06824 0.762495 0.355538 0.583373 -3.10705 1.60393 0.612734 0.543589 0.841014 1.29108 0.154348 -0.284994 -0.844736 -0.809774 -1.01599 -1.28346 -0.973981 -0.503658 -2.08764 -0.578249 -1.49453 -1.03315 -0.991171 -1.57098 -0.665303 -1.73834 -1.63091 -0.00931047 0.201216 -0.417529 -0.330426 -0.540214 -0.865394 -0.990891 -0.709195 0.299995 -3.65056 -0.505364 -1.59836 -0.84942 -0.456305 -1.16546 -0.693938 -3.16178 -1.55758 -0.118119 0.265907 -0.337091 -0.225151 -0.69156 -0.451391 0.149563 0.417908 -1.18265 0.163256 -0.84285 -0.791525 -0.025169 -1.27757 0.312309 -0.70719 -0.751967 0.156606 0.654609 -0.0531083 0.0591268 -0.111899 0.136487 1.10081 -0.919007 0.17883 -0.272164 0.900463 0.150917 -2.04862 0.254378 -0.0939961 -0.302027 0.506315 0.63992 -0.104035 0.353289 0.423521 0.704027 -0.319516 1.19493 0.27412 -0.662168 0.29786 -1.80099 0.678467 0.304389 0.191108 0.972619 0.860108 0.101053 0.879865 0.947099 -0.979795 0.346034 -0.215572 -0.398589 0.2484 -0.881531 0.932482 -0.635541 -0.712383 0.697371 1.02954 -0.0551629 0.184618 -3.35406 -0.148778 -1.21654 -0.597155 -0.090738 -0.824107 -0.342971 -2.12518 -1.07609 -0.0752092 0.466141 0.109722 -1.58298 -0.250226 -1.03177 -0.966918 -1.20675 -1.36665 -0.308961 -1.11999 -1.02381 0.104627 0.890255 -0.346213 1.14548 2.03359 0.172305 0.492601 -0.430716 3.34191 1.41683 0.772603 0.865359 2.12849 0.355186 -0.535495 -0.877062 -0.186628 -1.37898 0.238304 -0.564588 -0.917353 0.00915273 0.384115 -0.028044 -0.393334 0.238557 -0.741723 1.22684 -0.57008 -0.0289756 0.485106 1.30847 0.262687 0.765643 -3.87631 0.698611 0.678237 0.325473 0.92422 0.93937 0.218978 -1.28629 0.497199 -0.160898 -0.348399 0.359849 1.06229 0.043875 1.04699 1.25496 0.921971 1.34157 1.4314 0.343077 -2.54376 -0.97127 -0.0220615 1.30894 -0.238309 -0.23426 0.637798 1.61191 0.267678 0.723524 1.21933 0.238689 0.340363 -0.259682 -0.280007
label 50 114 109 105 100 118 106 107 103 104 117 56 55 116 48 112 52 49 120 97 113 53 99 121 101 102 51 108 98 110 115 119 54 57
nr_sv 28 38 37 31 37 40 39 33 28 48 24 38 37 47 32 37 28 37 36 31 29 35 39 34 47 30 24 33 34 42 35 28 31 1
SV
0.00170437978192111 0 0 0 0 0.000655120343344845 0 0 0 0 0.001192812011122285 0.01614587633808971 0 0 0 0 0 0 0 0 0 0.001486801195355728 0 0 0 0.007452632885161561 0 0 0 0 0 0 0 1:1 2:1 3:1 4:1 5:1 6:0.362 7:0.622 8:0.622 9:0.444 10:0.244 11:0.822 12:1 13:0.52 14:1 15:1 16:1 17:1 18:0.822 19:1 20:1 21:1 22:0.822 23:0.244 24:0.066 25:0.066 26:0.066 27:0.066 28:0.266 29:0.622 30:1 31:1 32:1 33:1 34:1 35:0.066 36:1 37:1 38:1 39:0.066 40:0.066 41:0.066 42:0.244 43:0.066 44:0.066 45:0.066 46:0.066 47:0.622 48:1 49:1 50:1 51:1 52:0.066 53:0.622 54:1 55:0.444 56:0.066 57:0.066 58:0.444 59:1 60:1 61:0.622 62:0.066 63:0.066 64:0.444 65:1 66:1 67:1 68:1 69:0.066 70:0.622 71:1 72:0.266 73:0.066 74:0.244 75:1 76:1 77:1 78:1 79:0.066 80:0.066 81:0.244 82:1 83:1 84:1 85:1 86:0.066 87:0.184 88:1 89:0.8 90:0.822 91:0.8 92:1 93:1 94:1 95:1 96:0.266 97:0.066 98:0.444 99:1 100:1 101:1 102:1 103:0.066 104:1 105:1 106:1 107:1 108:0.742 109:1 110:1 111:1 112:0.622 113:0.066 114:0.066 115:0.444 116:1 117:1 118:1 119:1 120:0.444 121:1 122:1 123:1 124:1 125:1 126:1 127:1 128:0.822 129:0.244 130:0.066 131:0.244 132:1 133:1 134:1 135:1 136:1 137:0.822 138:1 139:1 140:1 141:1 142:1 143:1 144:0.822 145:0.066 146:0.066 147:0.066 148:0.622 149:1 150:1 151:1 152:1 153:1 154:1 155:1 156:1 157:1 158:1 159:1 160:1 161:0.244 162:0.066 163:0.066 164:0.444 165:1 166:1 167:0.592 168:1 169:1 170:1 171:0.458 172:1 173:1 174:1 175:1 176:1 177:0.244 178:0.066 179:0.066 180:0.444 181:1 182:1 183:1 184:1 185:1 186:1 187:1 188:0.484 189:0.118 190:1 191:1 192:1 193:0.444 194:0.066 195:0.066 196:0.266 197:1 198:1 199:1 200:1 201:1 202:1 203:1 204:1 205:0.422 206:0.184 207:0.622 208:1 209:0.622 210:0.066 211:0.066 212:0.244 213:0.8 214:0.822 215:0.8 216:0.822 217:0.622 218:0.822 219:1 220:0.326 221:1 222:0.066 223:0.066 224:0.622 225:1 226:0.444 227:0.066 228:0.066 229:0.066 230:0.266 231:0.066 232:0.066 233:0.066 234:0.066 235:0.622 236:1 237:1 238:1 239:0.066 240:0.244 241:0.444 242:0.822 243:0.066 244:0.066 245:0.066 246:0.066 247:0.066 248:0.066 249:0.066 250:0.066 251:0.066 252:0.622 253:1 254:1 255:1 256:1 257:1 258:1 259:0.622 260:0.266 261:0.244 262:0.444 263:0.244 264:0.622 265:0.444 266:0.622 267:0.622 268:0.822 269:0.822 270:1 271:1 272:1 273:1 274:1 275:1 276:1 277:1 278:1 279:1 280:1 281:1 282:1 283:1 284:0.406 285:1 286:1 287:1 288:1 289:0.54 290:1 291:1 292:1 293:1 294:1 295:1 296:1 297:1 298:1 299:1 300:1 301:1 302:1 303:1 304:0.794 305:1 306:1 307:1 308:1 309:1 310:1 311:0.442 312:1 313:1 314:1 315:1 316:1 317:1 318:1 319:1 320:1 321:1 322:1 323:1 324:1 325:1 326:1 327:1 328:1 329:1 330:1 331:1 332:1 333:0.4 334:1 335:1 336:1 337:1 338:0.718 339:1 340:1 341:1 342:1 343:1 344:1 345:1 346:1 347:1 348:1 349:1 350:1 351:1 352:1 353:1 354:1 355:1 356:1 357:0.658 
0 0 0 0.0005836254939071133 0.004425700700901708 0 0.008359690845268586 0 0.001862065790853152 0.003255606113189422 0.00662797321381025 0.004270304006943108 0 0.006433383821954478 0 0.0004361207837107505 0 0 0 0 0.001624122622696256 0.0001907594105750404 0 0.00154935395016714 0 0.01150547368695909 0 0.001052586465311995 0 0 0 0 0 1:1 2:1 3:1 4:1 5:1 6:1 7:1 8:0.526 9:1 10:1 11:1 12:1 13:1 14:1 15:1 16:1 17:1 18:1 19:1 20:1 21:1 22:1 23:1 24:0.244 25:0.244 26:0.266 27:0.244 28:0.266 29:0.444 30:1 31:1 32:1 33:1 34:1 35:1 36:1 37:1 38:1 39:1 40:0.622 41:0.066 42:0.066 43:0.066 44:0.066 45:0.066 46:0.066 47:0.244 48:0.384 49:1 50:1 51:1 52:1 53:1 54:0.496 55:1 56:0.26 57:0.244 58:0.066 59:0.066 60:0.444 61:0.444 62:0.444 63:0.066 64:0.066 65:0.244 66:1 67:1 68:1 69:1 70:1 71:1 72:0.8 73:0.41 74:0.622 75:0.244 76:0.444 77:1 78:1 79:1 80:0.266 81:0.066 82:0.066 83:0.8 84:1 85:1 86:0.444 87:1 88:1 89:1 90:1 91:1 92:1 93:1 94:1 95:1 96:0.598 97:0.444 98:0.066 99:0.066 100:0.822 101:1 102:0.822 103:0.066 104:0.822 105:1 106:1 107:1 108:1 109:1 110:1 111:1 112:1 113:0.8 114:0.244 115:0.066 116:0.244 117:0.8 118:1 119:0.066 120:0.066 121:0.244 122:1 123:1 124:1 125:1 126:1 127:1 128:1 129:0.822 130:0.444 131:0.066 132:0.066 133:0.244 134:1 135:0.622 136:0.066 137:0.244 138:0.244 139:1 140:1 141:1 142:0.422 143:1 144:1 145:0.444 146:0.244 147:0.066 148:0.066 149:0.066 150:1 151:1 152:0.184 153:0.066 154:0.528 155:1 156:1 157:1 158:1 159:1 160:0.622 161:0.244 162:0.066 163:0.066 164:0.066 165:0.244 166:1 167:1 168:1 169:0.244 170:0.066 171:1 172:1 173:1 174:0.444 175:0.622 176:0.266 177:0.066 178:0.066 179:0.066 180:0.244 181:0.044 182:0.718 183:1 184:1 185:1 186:0.266 187:0.066 188:0.244 189:1 190:1 191:0.444 192:0.066 193:0.066 194:0.066 195:0.244 196:0.622 197:1 198:1 199:1 200:1 201:1 202:1 203:0.444 204:0.066 205:0.422 206:1 207:0.444 208:0.066 209:0.066 210:0.066 211:0.244 212:1 213:1 214:1 215:0.126 216:1 217:1 218:1 219:1 220:0.622 221:0.066 222:0.644 223:0.8 224:0.066 225:0.066 226:0.066 227:0.066 228:0.066 229:0.066 230:0.244 231:0.8 232:1 233:1 234:1 235:1 236:1 237:1 238:0.266 239:1 240:1 241:0.444 242:0.444 243:0.066 244:0.066 245:0.066 246:0.066 247:0.066 248:0.066 249:0.066 250:0.444 251:1 252:1 253:1 254:1 255:0.8 256:1 257:1 258:1 259:1 260:1 261:0.8 262:0.622 263:0.244 264:0.266 265:0.066 266:0.066 267:0.444 268:1 269:1 270:1 271:1 272:0.644 273:1 274:1 275:1 276:1 277:1 278:1 279:1 280:1 281:0.8 282:0.622 283:0.244 284:0.822 285:1 286:1 287:1 288:1 289:0.14 290:1 291:1 292:1 293:1 294:1 295:1 296:1 297:1 298:1 299:1 300:1 301:1 302:1 303:1 304:1 305:1 306:1 307:1 308:1 309:1 310:1 311:1 312:1 313:1 314:1 315:1 316:1 317:1 318:1 319:1 320:1 321:1 322:1 323:1 324:1 325:1 326:1 327:1 328:1 329:0.458 330:1 331:1 332:1 333:1 334:1 335:0.852 336:1 337:1 338:1 339:1 340:1 341:1 342:1 343:1 344:1 345:0.354 346:1 347:1 348:1 349:1 350:1 351:1 352:1 353:1 354:1 355:1 356:1 357:1 
0.009790666469054804 0 0.0135320875370679 0.005224519148202582 0.01420304160415575 0.01107980439668848 0.009453920240924519 0.00870585503505524 0.008289315386458303 0.007016015882448193 0.008823915791732998 0.01147130971778779 0.01060388469944017 0.01201185873956841 0.01104358588168296 0.01665544749001177 0.01853872487384797 0.00987960091138068 0.005111548335308856 0.004126022559791416 0.008051311242473567 0.009083231860509158 0.01242843888405418 0.00948853333034593 0.008901205392612761 0.005246443826705589 0.01365008025143471 0.007212388046606773 0.004913390080116378 0.004914248755770526 0 0.00704737157811552 0.006711630745114625 1:1 2:1 3:1 4:1 5:1 6:1 7:1 8:1 9:1 10:1 11:1 12:1 13:1 14:1 15:1 16:1 17:0.516 18:1 19:1 20:1 21:1 22:1 23:1 24:1 25:0.8 26:0.444 27:0.244 28:0.444 29:0.622 30:1 31:1 32:1 33:1 34:1 35:1 36:1 37:0.306 38:1 39:1 40:1 41:0.622 42:0.066 43:0.066 44:0.066 45:0.066 46:0.066 47:0.066 48:0.126 49:1 50:1 51:1 52:1 53:1 54:1 55:1 56:1 57:0.822 58:0.266 59:0.066 60:0.066 61:0.244 62:0.444 63:0.066 64:0.066 65:0.066 66:0.822 67:1 68:1 69:1 70:1 71:1 72:0.518 73:1 74:1 75:0.422 76:0.244 77:0.422 78:1 79:1 80:0.822 81:0.066 82:0.066 83:0.066 84:1 85:1 86:1 87:1 88:1 89:1 90:1 91:1 92:1 93:0.822 94:1 95:1 96:1 97:1 98:0.444 99:0.066 100:0.066 101:0.8 102:0.066 103:1 104:0.38 105:1 106:1 107:1 108:1 109:1 110:1 111:1 112:1 113:1 114:1 115:0.066 116:0.066 117:0.066 118:1 119:0.622 120:1 121:1 122:1 123:1 124:1 125:1 126:1 127:1 128:1 129:1 130:1 131:0.444 132:0.066 133:0.066 134:0.444 135:1 136:1 137:1 138:1 139:1 140:1 141:1 142:1 143:1 144:1 145:1 146:0.822 147:0.244 148:0.066 149:0.066 150:0.066 151:0.622 152:1 153:1 154:1 155:1 156:1 157:1 158:0.674 159:1 160:1 161:0.622 162:0.444 163:0.066 164:0.066 165:0.066 166:0.266 167:0.622 168:1 169:1 170:1 171:1 172:1 173:1 174:1 175:1 176:0.066 177:0.066 178:0.066 179:0.066 180:0.066 181:0.066 182:0.444 183:0.8 184:0.266 185:1 186:1 187:1 188:1 189:1 190:1 191:0.8 192:0.444 193:0.066 194:0.066 195:0.066 196:0.266 197:0.444 198:0.822 199:1 200:1 201:0.702 202:1 203:1 204:1 205:1 206:1 207:0.622 208:0.066 209:0.066 210:0.066 211:0.066 212:0.444 213:0.208 214:1 215:1 216:1 217:0.14 218:1 219:1 220:1 221:1 222:1 223:0.822 224:0.266 225:0.066 226:0.066 227:0.066 228:0.266 229:0.444 230:1 231:1 232:1 233:1 234:1 235:1 236:1 237:1 238:1 239:0.4 240:1 241:0.422 242:0.244 243:0.066 244:0.066 245:0.066 246:0.066 247:0.066 248:0.266 249:0.444 250:1 251:1 252:1 253:1 254:1 255:0.244 256:1 257:1 258:1 259:1 260:0.822 261:0.444 262:0.266 263:0.066 264:0.066 265:0.066 266:0.066 267:0.244 268:1 269:1 270:1 271:0.622 272:0.266 273:1 274:1 275:0.504 276:1 277:1 278:1 279:1 280:0.644 281:0.244 282:0.244 283:0.066 284:0.444 285:1 286:1 287:1 288:1 289:1 290:0.236 291:1 292:1 293:1 294:1 295:1 296:1 297:1 298:1 299:0.822 300:0.622 301:0.8 302:0.436 303:0.222 304:0.466 305:1 306:1 307:1 308:1 309:1 310:1 311:1 312:0.622 313:1 314:1 315:1 316:1 317:1 318:1 319:1 320:1 321:1 322:1 323:1 324:1 325:1 326:1 327:1 328:1 329:1 330:1 331:1 332:1 333:1 334:1 335:1 336:1 337:1 338:1 339:1 340:1 341:1 342:1 343:0.674 344:1 345:1 346:0.38 347:1 348:1 349:1 350:1 351:1 352:1 353:0.238 354:1 355:1 356:1 357:1 
0 0.01218960064392351 0 0.006115155604412333 0 0 0.004299373133616799 0 0.008775431348958047 0.00782874869431343 0 0.001789521897826285 0.002502288341125142 0.00205168330967165 0.003082120551282688 0.002854354064037435 0 0 0.008831970678160522 0.003573380645815942 0.004646232235006944 0.0007405915595814908 0 0 0 0 0.00590374325830446 0.003426188443482372 0.0071055970996336 0.004650107231709029 0.005316355967555125 0.004659488014394083 0 1:1 2:1 3:1 4:1 5:1 6:1 7:1 8:1 9:1 10:1 11:1 12:1 13:1 14:1 15:1 16:1 17:1 18:1 19:1 20:1 21:1 22:1 23:1 24:1 25:0.622 26:0.444 27:0.066 28:0.266 29:0.622 30:1 31:1 32:1 33:1 34:1 35:1 36:1 37:1 38:1 39:0.386 40:1 41:0.244 42:0.066 43:0.066 44:0.066 45:0.066 46:0.066 47:0.066 48:0.622 49:1 50:1 51:1 52:1 53:1 54:1 55:1 56:1 57:0.622 58:0.066 59:0.066 60:0.066 61:0.244 62:0.444 63:0.066 64:0.066 65:0.066 66:0.822 67:1 68:1 69:1 70:1 71:1 72:1 73:1 74:0.822 75:0.244 76:0.266 77:0.444 78:1 79:1 80:0.622 81:0.066 82:0.066 83:0.244 84:1 85:0.8 86:0.444 87:0.822 88:0.792 89:1 90:0.66 91:1 92:0.822 93:0.822 94:1 95:1 96:1 97:1 98:0.266 99:0.066 100:0.266 101:1 102:0.622 103:0.066 104:0.244 105:0.8 106:1 107:1 108:1 109:1 110:1 111:1 112:1 113:1 114:0.8 115:0.066 116:0.066 117:0.066 118:0.444 119:0.066 120:0.066 121:0.066 122:0.644 123:1 124:1 125:1 126:1 127:1 128:1 129:1 130:1 131:0.244 132:0.066 133:0.066 134:0.622 135:0.8 136:0.066 137:0.066 138:0.066 139:0.444 140:1 141:1 142:1 143:1 144:1 145:1 146:0.622 147:0.066 148:0.066 149:0.066 150:0.244 151:1 152:0.444 153:0.066 154:0.066 155:0.066 156:0.622 157:1 158:1 159:1 160:1 161:0.444 162:0.266 163:0.066 164:0.066 165:0.066 166:0.444 167:0.822 168:1 169:0.066 170:0.066 171:0.066 172:0.066 173:0.8 174:1 175:0.822 176:0.444 177:0.066 178:0.066 179:0.066 180:0.066 181:0.066 182:0.066 183:1 184:0.126 185:0.622 186:0.066 187:0.066 188:0.066 189:0.244 190:1 191:0.622 192:0.266 193:0.066 194:0.066 195:0.066 196:0.266 197:0.444 198:1 199:1 200:1 201:1 202:0.444 203:0.066 204:0.066 205:0.066 206:0.444 207:0.622 208:0.066 209:0.066 210:0.066 211:0.066 212:0.622 213:1 214:1 215:1 216:1 217:1 218:0.822 219:0.066 220:0.066 221:0.066 222:0.066 223:0.622 224:0.266 225:0.066 226:0.066 227:0.066 228:0.184 229:0.444 230:0.822 231:1 232:1 233:1 234:1 235:0.622 236:0.266 237:0.066 238:0.444 239:0.066 240:0.822 241:0.422 242:0.244 243:0.066 244:0.066 245:0.066 246:0.066 247:0.066 248:0.244 249:0.422 250:0.822 251:1 252:1 253:1 254:0.622 255:0.8 256:0.444 257:1 258:1 259:1 260:1 261:0.444 262:0.266 263:0.066 264:0.066 265:0.066 266:0.066 267:0.066 268:0.384 269:1 270:1 271:1 272:1 273:0.422 274:1 275:1 276:1 277:1 278:1 279:1 280:0.822 281:0.422 282:0.244 283:0.066 284:0.622 285:1 286:1 287:1 288:1 289:1 290:1 291:1 292:1 293:1 294:1 295:1 296:1 297:1 298:1 299:1 300:0.822 301:1 302:1 303:0.672 304:1 305:0.542 306:1 307:1 308:1 309:1 310:1 311:1 312:1 313:0.358 314:1 315:1 316:1 317:1 318:1 319:1 320:1 321:1 322:1 323:1 324:1 325:1 326:1 327:1 328:1 329:1 330:1 331:1 332:1 333:1 334:0.082 335:1 336:1 337:1 338:1 339:1 340:1 341:1 342:1 343:1 344:1 345:1 346:1 347:1 348:1 349:1 350:1 351:1 352:1 353:1 354:1 355:0.58 356:1 357:1 
0.003767510948728541 0 0.009827095010903973 0 0.007738434203702006 0.007787450197865269 0 0.002900524067027116 0 0 0 0.01595766785798053 0.004354890593153225 0.001054746716305635 0 0.006524046679634677 0.003254970821292304 0.00399562942489703 0 0 0.001718876737824744 0.001668787529893581 0.005500680978729218 0 0.008915930665541843 0.007123105348954116 0.01105725655622592 0 0.002693317468683868 0.004816387974478881 0 0 0 1:1 2:1 3:1 4:0.674 5:0.42 6:1 7:0.822 8:0.622 9:0.422 10:0.444 11:0.444 12:1 13:1 14:1 15:1 16:1 17:1 18:1 19:1 20:1 21:1 22:1 23:0.622 24:0.266 25:0.066 26:0.066 27:0.066 28:0.066 29:0.244 30:0.822 31:0.118 32:1 33:1 34:1 35:0.422 36:1 37:1 38:1 39:0.622 40:0.066 41:0.066 42:0.066 43:0.244 44:0.244 45:0.066 46:0.066 47:0.066 48:1 49:1 50:1 51:0.622 52:0.066 53:0.822 54:1 55:1 56:0.266 57:0.066 58:0.066 59:0.622 60:1 61:1 62:0.444 63:0.066 64:0.066 65:0.444 66:1 67:1 68:0.622 69:0.066 70:0.622 71:1 72:1 73:0.066 74:0.066 75:0.066 76:1 77:1 78:1 79:0.8 80:0.066 81:0.066 82:0.266 83:0.298 84:0.658 85:0.244 86:0.066 87:0.622 88:1 89:1 90:0.822 91:0.8 92:1 93:1 94:0.624 95:1 96:0.822 97:0.066 98:0.066 99:0.444 100:1 101:1 102:0.266 103:0.066 104:0.822 105:1 106:1 107:1 108:1 109:0.26 110:1 111:1 112:1 113:0.244 114:0.066 115:0.066 116:0.622 117:1 118:1 119:0.066 120:0.444 121:1 122:1 123:1 124:1 125:1 126:1 127:1 128:1 129:0.622 130:0.066 131:0.066 132:0.444 133:1 134:1 135:0.822 136:0.066 137:0.8 138:1 139:1 140:1 141:1 142:1 143:0.578 144:1 145:0.622 146:0.066 147:0.066 148:0.066 149:0.622 150:1 151:1 152:0.622 153:0.066 154:1 155:1 156:1 157:1 158:0.458 159:0.386 160:1 161:0.8 162:0.266 163:0.066 164:0.066 165:0.622 166:1 167:1 168:1 169:0.444 170:0.066 171:1 172:1 173:0.24 174:1 175:1 176:1 177:0.8 178:0.244 179:0.066 180:0.066 181:0.422 182:1 183:1 184:1 185:1 186:0.244 187:0.066 188:1 189:0.178 190:1 191:1 192:1 193:1 194:0.444 195:0.066 196:0.066 197:0.444 198:1 199:1 200:1 201:1 202:1 203:0.244 204:0.066 205:1 206:1 207:1 208:1 209:1 210:0.622 211:0.066 212:0.066 213:0.066 214:0.126 215:0.8 216:0.822 217:0.444 218:0.622 219:0.622 220:0.266 221:0.066 222:0.444 223:0.622 224:1 225:1 226:1 227:0.244 228:0.066 229:0.066 230:0.066 231:0.066 232:0.066 233:0.066 234:0.066 235:0.066 236:0.444 237:0.066 238:0.066 239:0.066 240:0.622 241:1 242:1 243:0.8 244:0.066 245:0.066 246:0.066 247:0.066 248:0.066 249:0.066 250:0.066 251:0.066 252:0.066 253:0.244 254:0.066 255:0.066 256:0.444 257:0.444 258:1 259:1 260:0.622 261:0.244 262:0.444 263:0.244 264:0.622 265:0.444 266:0.644 267:0.8 268:0.822 269:0.8 270:1 271:0.622 272:0.444 273:1 274:1 275:1 276:1 277:1 278:1 279:1 280:1 281:1 282:1 283:1 284:1 285:1 286:1 287:1 288:1 289:1 290:1 291:1 292:1 293:1 294:1 295:1 296:1 297:1 298:1 299:1 300:1 301:1 302:1 303:1 304:1 305:1 306:0.682 307:1 308:1 309:1 310:1 311:1 312:1 313:1 314:1 315:1 316:1 317:1 318:1 319:1 320:1 321:1 322:1 323:1 324:1 325:1 326:0.52 327:1 328:1 329:1 330:1 331:1 332:1 333:1 334:1 335:1 336:1 337:1 338:1 339:1 340:0.68 341:0.658 342:1 343:1 344:1 345:1 346:1 347:1 348:1 349:1 350:1 351:1 352:1 353:1 354:1 355:1 356:1 357:1 
0.0239187747590745 0.00706416731815394 0.01957352333793485 0 0.006826122712342573 0.01774079663858248 0.02009014162190472 0.0009216596668899155 0.005899861208885868 0.005900227249155653 0.01656642947157624 0.04179611778849573 0.02827952050076578 0.01359076919062666 0.004708674922858961 0.005094074215056628 0.02492942002901902 0.01538006836201965 0.01044181720429893 0.0001828984845522233 0.01063970879757903 0.009609582532684057 0.004792993102649577 0.00784796948790174 0.01882392878899239 0.01454055521464925 0.02502924814654504 0.00522190660739084 8.068691011087835e-05 0.007418655260475165 0.00604735429376729 0.01394087870301414 0 1:1 2:1 3:1 4:1 5:1 6:0.822 7:0.444 8:0.266 9:0.422 10:0.822 11:1 12:1 13:1 14:1 15:0.326 16:1 17:1 18:1 19:1 20:1 21:0.022 22:0.444 23:0.066 24:0.066 25:0.066 26:0.066 27:0.066 28:0.622 29:1 30:0.518 31:1 32:0.642 33:1 34:1 35:1 36:1 37:0.8 38:0.244 39:0.066 40:0.066 41:0.066 42:0.244 43:0.066 44:0.066 45:0.066 46:0.822 47:0.638 48:1 49:1 50:1 51:1 52:1 53:1 54:0.444 55:0.066 56:0.066 57:0.444 58:1 59:1 60:0.444 61:0.066 62:0.066 63:0.444 64:1 65:1 66:0.304 67:1 68:1 69:1 70:1 71:0.244 72:0.066 73:0.066 74:1 75:1 76:1 77:1 78:0.066 79:0.066 80:0.266 81:1 82:1 83:1 84:1 85:0.718 86:1 87:1 88:0.266 89:0.066 90:0.266 91:1 92:1 93:1 94:1 95:0.244 96:0.066 97:0.244 98:1 99:1 100:1 101:1 102:1 103:0.8 104:1 105:0.444 106:0.8 107:1 108:1 109:1 110:1 111:0.622 112:0.066 113:0.066 114:0.444 115:0.422 116:1 117:1 118:1 119:1 120:0.444 121:0.564 122:1 123:1 124:1 125:1 126:0.424 127:1 128:0.244 129:0.066 130:0.066 131:0.8 132:1 133:1 134:0.466 135:1 136:1 137:0.066 138:0.822 139:1 140:1 141:1 142:1 143:1 144:0.822 145:0.066 146:0.066 147:0.244 148:1 149:1 150:1 151:1 152:1 153:1 154:0.066 155:0.8 156:1 157:1 158:1 159:1 160:0.484 161:0.244 162:0.066 163:0.066 164:0.822 165:1 166:1 167:1 168:1 169:1 170:1 171:0.066 172:0.822 173:1 174:1 175:1 176:1 177:0.622 178:0.066 179:0.066 180:0.444 181:1 182:1 183:1 184:1 185:1 186:1 187:1 188:0.066 189:0.822 190:1 191:1 192:1 193:1 194:0.444 195:0.066 196:0.066 197:0.8 198:1 199:0.822 200:0.622 201:0.244 202:0.644 203:1 204:1 205:0.244 206:1 207:1 208:1 209:1 210:1 211:0.066 212:0.066 213:0.066 214:0.622 215:0.244 216:0.244 217:0.066 218:0.066 219:0.244 220:1 221:0.54 222:1 223:1 224:1 225:1 226:1 227:0.622 228:0.066 229:0.066 230:0.066 231:0.066 232:0.066 233:0.066 234:0.066 235:0.244 236:0.444 237:1 238:1 239:1 240:1 241:1 242:1 243:0.148 244:0.444 245:0.066 246:0.066 247:0.066 248:0.066 249:0.066 250:0.244 251:0.622 252:1 253:1 254:1 255:1 256:1 257:1 258:1 259:1 260:1 261:0.066 262:0.066 263:0.244 264:0.444 265:0.622 266:1 267:1 268:1 269:1 270:1 271:1 272:1 273:0.284 274:1 275:1 276:1 277:1 278:0.622 279:0.622 280:0.598 281:1 282:1 283:1 284:1 285:1 286:1 287:1 288:1 289:1 290:1 291:0.562 292:1 293:1 294:1 295:1 296:1 297:1 298:1 299:1 300:1 301:1 302:1 303:1 304:1 305:1 306:1 307:1 308:1 309:1 310:1 311:1 312:1 313:1 314:1 315:1 316:1 317:1 318:1 319:1 320:1 321:1 322:1 323:1 324:1 325:1 326:1 327:1 328:1 329:1 330:1 331:1 332:1 333:1 334:1 335:1 336:1 337:1 338:1 339:1 340:1 341:1 342:1 343:1 344:1 345:1 346:1 347:1 348:1 349:1 350:1 351:1 352:1 353:1 354:1 355:1 356:1 357:1 
0.006419615038825119 0.01000283311080792 0.01417803302434629 0.004276591399951051 0.008730891917290491 0.01476324470398245 0.003629979992851489 0.006064073587348216 0.006572152765593827 0.00592709663002803 0 0.03219962554804228 0.01761714573897759 0.0004586055120229602 0.003241357689481416 0.009753844960993213 0.01875941471168788 0.009175809459834514 0.007330051933706743 0.005153913431680625 0.009839441667651418 0.006479542977172445 0.01210590062407811 0.009604749949986929 0.00866854834022371 0.008562497836650916 0.02055696505838357 0.004033909278123526 0.008346637297827334 0.008630059791033744 0.01561400022843485 0.0002648495319687776 0.002018266029992152 1:1 2:1 3:1 4:1 5:1 6:1 7:1 8:1 9:1 10:0.622 11:0.444 12:0.622 13:0.8 14:1 15:1 16:1 17:1 18:1 19:1 20:1 21:1 22:1 23:1 24:1 25:0.622 26:0.266 27:0.066 28:0.066 29:0.066 30:0.266 31:0.444 32:1 33:1 34:1 35:0.066 36:0.622 37:1 38:1 39:1 40:1 41:0.8 42:0.244 43:0.066 44:0.066 45:0.066 46:0.066 47:0.066 48:0.066 49:0.244 50:1 51:1 52:0.066 53:0.066 54:0.822 55:1 56:1 57:0.74 58:0.822 59:0.244 60:0.066 61:0.244 62:0.822 63:0.822 64:0.444 65:0.066 66:0.066 67:0.444 68:1 69:0.066 70:0.066 71:0.066 72:1 73:1 74:0.444 75:1 76:1 77:0.444 78:1 79:1 80:1 81:1 82:0.244 83:0.066 84:0.244 85:1 86:0.444 87:0.066 88:0.266 89:1 90:1 91:1 92:1 93:1 94:1 95:1 96:1 97:1 98:1 99:0.244 100:0.066 101:0.066 102:1 103:0.8 104:0.622 105:0.044 106:1 107:1 108:1 109:1 110:1 111:1 112:1 113:1 114:1 115:0.066 116:0.066 117:0.066 118:0.244 119:0.622 120:1 121:1 122:1 123:1 124:1 125:1 126:1 127:1 128:1 129:0.208 130:0.646 131:0.622 132:0.266 133:0.066 134:0.066 135:0.444 136:0.444 137:0.444 138:1 139:1 140:0.498 141:1 142:1 143:1 144:1 145:0.8 146:0.444 147:0.066 148:0.066 149:0.066 150:0.066 151:0.244 152:0.822 153:0.066 154:0.266 155:0.422 156:1 157:0.342 158:1 159:0.822 160:0.622 161:0.244 162:0.066 163:0.066 164:0.066 165:0.066 166:0.066 167:0.444 168:1 169:0.162 170:0.066 171:0.066 172:0.822 173:1 174:0.442 175:0.422 176:0.244 177:0.066 178:0.066 179:0.066 180:0.066 181:0.066 182:0.444 183:0.622 184:1 185:1 186:0.622 187:0.066 188:0.066 189:0.8 190:0.696 191:0.244 192:0.066 193:0.066 194:0.066 195:0.244 196:0.444 197:0.622 198:1 199:1 200:1 201:1 202:1 203:0.622 204:0.066 205:0.066 206:0.822 207:0.066 208:0.066 209:0.066 210:0.066 211:0.066 212:0.822 213:1 214:1 215:1 216:1 217:1 218:1 219:1 220:0.822 221:0.066 222:0.444 223:0.822 224:0.444 225:0.244 226:0.066 227:0.066 228:0.066 229:0.066 230:0.444 231:0.8 232:1 233:1 234:1 235:1 236:1 237:1 238:0.444 239:0.622 240:1 241:1 242:1 243:0.444 244:0.244 245:0.066 246:0.066 247:0.066 248:0.066 249:0.244 250:0.622 251:1 252:1 253:1 254:0.378 255:0.8 256:1 257:1 258:1 259:1 260:1 261:1 262:0.644 263:0.244 264:0.066 265:0.066 266:0.066 267:0.244 268:1 269:1 270:1 271:0.704 272:1 273:1 274:1 275:1 276:1 277:1 278:1 279:1 280:1 281:0.622 282:0.444 283:0.066 284:0.184 285:1 286:1 287:1 288:1 289:1 290:1 291:1 292:1 293:1 294:1 295:0.35 296:1 297:1 298:1 299:1 300:0.822 301:0.822 302:1 303:1 304:1 305:1 306:1 307:1 308:1 309:1 310:0.88 311:1 312:1 313:1 314:1 315:1 316:1 317:0.482 318:1 319:1 320:1 321:1 322:1 323:1 324:1 325:1 326:1 327:1 328:1 329:1 330:1 331:1 332:0.342 333:1 334:1 335:1 336:1 337:0.318 338:1 339:1 340:1 341:1 342:1 343:1 344:1 345:1 346:1 347:1 348:1 349:1 350:1 351:1 352:1 353:1 354:1 355:1 356:1 357:0.554 
0.0008038988791979382 0 0 0 0.0007384306086531308 0 0 0 0 0 0 0 0 0 0 0 0 0.0002927513330833673 0 0 0 0 0 0 0 0 0 0 0 0 0 0 0.004401955062412852 1:0.8 2:1 3:1 4:1 5:1 6:1 7:0.576 8:0.822 9:0.244 10:0.244 11:0.066 12:0.444 13:0.622 14:1 15:1 16:1 17:1 18:0.266 19:0.822 20:1 21:1 22:1 23:0.18 24:0.622 25:0.066 26:0.066 27:0.066 28:0.066 29:0.066 30:0.066 31:0.244 32:1 33:1 34:1 35:0.066 36:1 37:1 38:1 39:1 40:0.822 41:0.066 42:0.066 43:0.066 44:0.444 45:0.422 46:0.244 47:0.066 48:0.066 49:0.044 50:1 51:1 52:0.444 53:1 54:1 55:1 56:1 57:0.444 58:0.266 59:0.066 60:0.622 61:1 62:1 63:1 64:0.266 65:0.066 66:0.266 67:0.56 68:1 69:0.622 70:1 71:1 72:1 73:1 74:1 75:1 76:0.822 77:0.8 78:1 79:1 80:1 81:0.044 82:0.066 83:0.066 84:0.822 85:1 86:1 87:1 88:1 89:1 90:1 91:1 92:1 93:1 94:1 95:1 96:1 97:0.638 98:0.266 99:0.066 100:0.066 101:0.8 102:1 103:1 104:1 105:1 106:1 107:0.674 108:1 109:1 110:0.498 111:1 112:1 113:1 114:0.444 115:0.066 116:0.066 117:0.244 118:1 119:1 120:1 121:1 122:1 123:1 124:1 125:1 126:1 127:1 128:1 129:0.822 130:0.444 131:0.066 132:0.066 133:0.066 134:0.822 135:1 136:1 137:1 138:1 139:1 140:1 141:1 142:1 143:1 144:1 145:0.444 146:0.244 147:0.066 148:0.066 149:0.066 150:0.622 151:1 152:0.222 153:1 154:1 155:1 156:1 157:1 158:1 159:1 160:0.822 161:0.244 162:0.066 163:0.066 164:0.066 165:0.066 166:0.822 167:1 168:1 169:0.534 170:1 171:1 172:1 173:1 174:1 175:1 176:0.444 177:0.066 178:0.066 179:0.066 180:0.244 181:0.444 182:1 183:1 184:1 185:1 186:1 187:1 188:1 189:1 190:1 191:1 192:0.266 193:0.066 194:0.066 195:0.066 196:0.444 197:0.822 198:1 199:1 200:1 201:1 202:1 203:1 204:1 205:1 206:1 207:1 208:0.444 209:0.066 210:0.066 211:0.066 212:0.266 213:0.622 214:1 215:1 216:1 217:1 218:1 219:1 220:0.528 221:1 222:1 223:1 224:0.6 225:0.066 226:0.066 227:0.066 228:0.066 229:0.066 230:0.066 231:0.244 232:0.266 233:0.444 234:0.822 235:1 236:1 237:1 238:1 239:1 240:1 241:0.8 242:0.622 243:0.066 244:0.266 245:0.066 246:0.066 247:0.066 248:0.066 249:0.066 250:0.066 251:0.066 252:1 253:1 254:0.498 255:1 256:1 257:1 258:1 259:0.266 260:1 261:1 262:1 263:0.822 264:0.622 265:0.244 266:0.206 267:0.066 268:0.266 269:1 270:1 271:0.4 272:1 273:1 274:1 275:1 276:1 277:1 278:1 279:0.4 280:1 281:1 282:0.624 283:1 284:0.244 285:0.622 286:1 287:1 288:1 289:1 290:1 291:1 292:1 293:1 294:1 295:1 296:1 297:1 298:1 299:1 300:1 301:1 302:1 303:1 304:1 305:0.616 306:1 307:1 308:0.612 309:1 310:1 311:1 312:1 313:1 314:1 315:1 316:1 317:1 318:1 319:1 320:1 321:1 322:1 323:1 324:1 325:1 326:1 327:1 328:1 329:1 330:0.836 331:1 332:0.26 333:1 334:1 335:1 336:1 337:1 338:1 339:1 340:1 341:0.584 342:1 343:1 344:1 345:1 346:0.362 347:1 348:1 349:1 350:1 351:1 352:1 353:0.376 354:1 355:1 356:1 357:1 
0 0.0004194307701031263 0 0 0 0 0 0 0 0 0 0 0 0 0 0 0 0 0 0 0 0 0 0 0 0 0 0 0 0 0 0 0 1:0.458 2:1 3:1 4:1 5:1 6:1 7:1 8:1 9:0.8 10:0.822 11:1 12:1 13:1 14:1 15:1 16:1 17:1 18:1 19:1 20:1 21:1 22:1 23:0.622 24:0.266 25:0.066 26:0.066 27:0.066 28:0.266 29:0.444 30:1 31:1 32:1 33:1 34:1 35:0.62 36:1 37:1 38:0.504 39:0.622 40:0.066 41:0.066 42:0.066 43:0.066 44:0.066 45:0.066 46:0.066 47:0.422 48:1 49:0.326 50:1 51:1 52:1 53:1 54:1 55:1 56:0.266 57:0.066 58:0.066 59:0.622 60:0.822 61:0.622 62:0.266 63:0.066 64:0.066 65:0.822 66:1 67:1 68:1 69:1 70:0.26 71:1 72:0.822 73:0.066 74:0.066 75:0.244 76:1 77:1 78:1 79:0.444 80:0.066 81:0.066 82:0.622 83:1 84:1 85:1 86:0.822 87:1 88:1 89:0.32 90:0.622 91:0.444 92:0.822 93:1 94:1 95:1 96:0.622 97:0.066 98:0.066 99:0.622 100:1 101:1 102:1 103:0.066 104:0.622 105:1 106:1 107:1 108:1 109:1 110:1 111:1 112:1 113:0.244 114:0.066 115:0.066 116:0.822 117:1 118:1 119:1 120:0.066 121:0.066 122:0.822 123:1 124:1 125:1 126:1 127:1 128:1 129:0.622 130:0.066 131:0.066 132:0.444 133:1 134:1 135:1 136:1 137:0.066 138:0.066 139:0.244 140:1 141:1 142:1 143:1 144:1 145:0.622 146:0.066 147:0.066 148:0.266 149:0.142 150:0.246 151:1 152:1 153:1 154:0.266 155:0.066 156:0.266 157:1 158:1 159:1 160:1 161:0.622 162:0.066 163:0.066 164:0.066 165:0.622 166:1 167:1 168:1 169:1 170:1 171:0.244 172:0.066 173:0.066 174:1 175:1 176:1 177:0.622 178:0.066 179:0.066 180:0.066 181:0.622 182:1 183:1 184:1 185:0.262 186:1 187:1 188:0.444 189:0.066 190:0.266 191:0.364 192:0.576 193:0.066 194:0.066 195:0.066 196:0.066 197:0.222 198:1 199:1 200:1 201:1 202:1 203:0.282 204:1 205:0.066 206:0.066 207:0.422 208:0.362 209:0.8 210:0.244 211:0.066 212:0.066 213:0.066 214:1 215:1 216:1 217:1 218:1 219:1 220:1 221:1 222:0.066 223:0.244 224:0.222 225:1 226:0.444 227:0.066 228:0.066 229:0.066 230:0.444 231:0.244 232:0.266 233:0.244 234:0.444 235:0.622 236:1 237:0.4 238:1 239:0.244 240:1 241:1 242:0.822 243:0.066 244:0.066 245:0.066 246:0.066 247:0.066 248:0.066 249:0.066 250:0.066 251:0.066 252:0.622 253:1 254:0.558 255:1 256:1 257:1 258:1 259:0.622 260:0.266 261:0.244 262:0.266 263:0.244 264:0.266 265:0.244 266:0.444 267:0.244 268:0.444 269:0.444 270:1 271:1 272:1 273:1 274:1 275:0.46 276:1 277:1 278:1 279:1 280:1 281:0.342 282:0.484 283:0.378 284:1 285:1 286:1 287:1 288:1 289:0.262 290:1 291:1 292:1 293:1 294:0.446 295:1 296:0.504 297:1 298:1 299:1 300:1 301:0.474 302:1 303:1 304:1 305:1 306:1 307:1 308:1 309:1 310:1 311:1 312:1 313:1 314:1 315:1 316:1 317:1 318:1 319:1 320:1 321:1 322:1 323:1 324:1 325:1 326:1 327:1 328:1 329:1 330:1 331:1 332:1 333:1 334:1 335:1 336:1 337:1 338:1 339:1 340:1 341:1 342:1 343:1 344:1 345:1 346:1 347:1 348:1 349:1 350:1 351:1 352:0.76 353:1 354:1 355:1 356:1 357:1 
0 0 0 0 0 0 0 0 0 0 0 0 0.0009637181125043449 0.00205013230502411 0 0 0 0 0 0 0 0 0 0 0 0.003912047052940355 0 0 0 0 0 0 0 1:1 2:0.082 3:1 4:1 5:1 6:1 7:0.622 8:0.622 9:0.444 10:0.066 11:1 12:1 13:1 14:1 15:1 16:1 17:1 18:0.622 19:1 20:1 21:1 22:0.622 23:0.244 24:0.066 25:0.066 26:0.066 27:0.066 28:0.266 29:1 30:1 31:1 32:1 33:1 34:1 35:0.066 36:0.444 37:1 38:0.444 39:0.066 40:0.066 41:0.066 42:0.244 43:0.066 44:0.066 45:0.066 46:0.444 47:1 48:1 49:1 50:1 51:1 52:0.066 53:0.244 54:1 55:0.244 56:0.066 57:0.244 58:0.822 59:1 60:0.444 61:0.244 62:0.066 63:0.066 64:1 65:1 66:1 67:1 68:0.406 69:0.066 70:0.066 71:0.444 72:0.066 73:0.066 74:0.444 75:1 76:1 77:1 78:0.444 79:0.066 80:0.066 81:0.444 82:1 83:1 84:0.978 85:1 86:0.822 87:0.8 88:0.622 89:0.244 90:0.244 91:0.622 92:1 93:1 94:1 95:0.444 96:0.066 97:0.066 98:0.644 99:1 100:1 101:1 102:1 103:1 104:1 105:0.8 106:1 107:1 108:1 109:1 110:1 111:1 112:0.444 113:0.066 114:0.066 115:0.8 116:1 117:1 118:1 119:1 120:0.822 121:1 122:1 123:1 124:1 125:1 126:1 127:1 128:0.822 129:0.066 130:0.066 131:0.244 132:1 133:1 134:1 135:1 136:0.822 137:0.066 138:0.044 139:1 140:1 141:1 142:1 143:1 144:1 145:0.244 146:0.066 147:0.066 148:0.822 149:1 150:1 151:1 152:1 153:0.444 154:0.066 155:0.444 156:1 157:1 158:1 159:1 160:1 161:0.444 162:0.066 163:0.066 164:0.444 165:1 166:0.622 167:0.298 168:1 169:0.364 170:0.444 171:0.066 172:0.266 173:1 174:1 175:1 176:1 177:0.622 178:0.066 179:0.066 180:0.244 181:0.8 182:0.498 183:1 184:1 185:1 186:0.852 187:0.444 188:0.066 189:0.244 190:1 191:1 192:0.402 193:1 194:0.444 195:0.066 196:0.066 197:0.622 198:1 199:1 200:1 201:1 202:1 203:1 204:0.622 205:0.066 206:0.444 207:1 208:1 209:1 210:0.622 211:0.066 212:0.066 213:0.422 214:1 215:0.8 216:0.622 217:0.422 218:0.266 219:0.8 220:1 221:0.8 222:0.066 223:0.8 224:1 225:1 226:1 227:0.066 228:0.066 229:0.066 230:0.266 231:0.244 232:0.066 233:0.066 234:0.066 235:0.066 236:0.644 237:1 238:1 239:0.422 240:1 241:1 242:1 243:0.622 244:0.066 245:0.066 246:0.066 247:0.066 248:0.066 249:0.066 250:0.066 251:0.066 252:0.244 253:0.444 254:1 255:1 256:0.418 257:1 258:1 259:1 260:0.622 261:0.066 262:0.066 263:0.066 264:0.266 265:0.244 266:0.444 267:0.622 268:1 269:1 270:1 271:1 272:0.406 273:1 274:1 275:1 276:1 277:0.444 278:0.444 279:0.126 280:0.822 281:1 282:1 283:1 284:1 285:1 286:1 287:1 288:1 289:1 290:0.462 291:1 292:1 293:1 294:1 295:1 296:1 297:1 298:1 299:1 300:1 301:1 302:0.794 303:1 304:1 305:1 306:1 307:1 308:1 309:1 310:1 311:1 312:1 313:1 314:1 315:1 316:1 317:1 318:1 319:1 320:1 321:1 322:1 323:1 324:1 325:0.496 326:1 327:1 328:1 329:1 330:1 331:1 332:1 333:1 334:1 335:1 336:0.734 337:1 338:1 339:1 340:1 341:1 342:1 343:1 344:1 345:1 346:1 347:1 348:1 349:1 350:1 351:1 352:0.498 353:1 354:1 355:1 356:1 357:1 
0 0 0 0.0001738399834685507 0 0.001864711328184512 0 0.0001867652235527952 0 0.0009530934461825776 0.001312846830476761 0.003400436222310712 0 0.00245649368099164 0 0 0 0 0.006573913547949615 0.0002709124452193641 0.001189481008625593 0 0 0.001908913054372008 0 0 0.003490175719679297 0 0 0.0009312794705923385 0 0.004125035792910743 0 1:0.4 2:1 3:1 4:1 5:1 6:1 7:1 8:1 9:0.4 10:0.822 11:0.822 12:1 13:1 14:0.638 15:1 16:1 17:1 18:1 19:1 20:1 21:1 22:1 23:1 24:0.622 25:0.066 26:0.066 27:0.066 28:0.266 29:0.244 30:0.822 31:1 32:1 33:1 34:1 35:1 36:1 37:1 38:1 39:1 40:0.444 41:0.066 42:0.066 43:0.066 44:0.066 45:0.066 46:0.066 47:0.066 48:0.622 49:1 50:1 51:1 52:1 53:1 54:1 55:1 56:1 57:0.244 58:0.066 59:0.066 60:0.644 61:0.8 62:0.304 63:0.066 64:0.066 65:0.244 66:1 67:1 68:1 69:1 70:1 71:1 72:1 73:0.8 74:0.266 75:0.066 76:0.444 77:1 78:1 79:1 80:0.444 81:0.066 82:0.066 83:0.622 84:1 85:1 86:0.622 87:1 88:1 89:1 90:1 91:1 92:1 93:1 94:1 95:1 96:0.638 97:0.444 98:0.066 99:0.066 100:0.622 101:1 102:1 103:0.066 104:0.822 105:1 106:1 107:1 108:0.184 109:1 110:1 111:1 112:0.716 113:0.446 114:0.244 115:0.066 116:0.066 117:0.8 118:1 119:1 120:0.066 121:0.244 122:1 123:1 124:1 125:1 126:1 127:1 128:1 129:1 130:0.444 131:0.066 132:0.066 133:0.244 134:1 135:1 136:0.76 137:0.066 138:0.244 139:1 140:1 141:0.696 142:1 143:1 144:1 145:0.622 146:0.266 147:0.066 148:0.066 149:0.066 150:1 151:1 152:1 153:1 154:0.066 155:0.066 156:0.822 157:1 158:1 159:1 160:1 161:0.444 162:0.066 163:0.066 164:0.066 165:0.244 166:0.822 167:1 168:1 169:1 170:1 171:0.444 172:0.822 173:1 174:1 175:1 176:1 177:0.066 178:0.066 179:0.066 180:0.066 181:0.244 182:1 183:0 184:1 185:0.8 186:0.622 187:0.8 188:0.822 189:0.8 190:0.468 191:0.622 192:0.822 193:0.244 194:0.066 195:0.066 196:0.266 197:0.622 198:1 199:1 200:1 201:1 202:0.822 203:0.066 204:0.066 205:0.066 206:0.066 207:0.8 208:0.822 209:0.066 210:0.066 211:0.066 212:0.266 213:0.8 214:1 215:1 216:1 217:1 218:1 219:1 220:0.266 221:0.066 222:0.066 223:0.266 224:1 225:0.244 226:0.066 227:0.066 228:0.066 229:0.244 230:0.444 231:0.622 232:0.422 233:0.8 234:1 235:1 236:1 237:0.444 238:0.066 239:0.066 240:1 241:0.622 242:0.066 243:0.066 244:0.066 245:0.066 246:0.066 247:0.066 248:0.066 249:0.066 250:0.066 251:0.066 252:1 253:1 254:1 255:0.244 256:1 257:1 258:1 259:0.822 260:0.822 261:0.444 262:0.444 263:0.244 264:0.266 265:0.066 266:0.066 267:0.066 268:0.444 269:1 270:1 271:1 272:1 273:1 274:1 275:1 276:1 277:1 278:1 279:1 280:1 281:1 282:0.822 283:0.622 284:0.622 285:0.104 286:1 287:1 288:1 289:1 290:0.918 291:1 292:1 293:1 294:1 295:1 296:0.408 297:1 298:1 299:1 300:1 301:1 302:1 303:1 304:1 305:1 306:1 307:1 308:1 309:1 310:1 311:0.532 312:1 313:1 314:1 315:1 316:1 317:1 318:1 319:1 320:1 321:1 322:1 323:1 324:1 325:1 326:1 327:1 328:1 329:0.518 330:1 331:1 332:1 333:0.86 334:1 335:1 336:1 337:1 338:1 339:1 340:1 341:1 342:1 343:1 344:1 345:1 346:1 347:1 348:0.542 349:1 350:1 351:1 352:1 353:1 354:1 355:1 356:1 357:1 
0 0.01898913707376425 0.01792725887488859 0.00589096459592395 0.004150114484277892 0.01118417285909085 0.00696217336990035 0.001172911130662881 0.009023459606125049 0.003738778100589839 0.00610463612280648 0.01181315413864178 0.01056769857592784 0.01007290459540667 0.00554726817068766 0.008198541810999299 0.01615923192253889 0.00846141679062324 0.007709356664558038 0.005467553586632582 0.01796563156086385 0.006025379313968246 0.00751258077123956 0.00598592631701763 0.006727723974067319 0.01680162695837876 0.01502691650591292 0.002711410324603598 0.006223469045482086 0.003331339929109432 0.004784592242712591 0.00437199864373966 0.001355244451108109 1:1 2:0.652 3:1 4:1 5:0.118 6:0.822 7:0.244 8:0.266 9:0.066 10:0.266 11:0.622 12:1 13:1 14:1 15:1 16:1 17:1 18:1 19:1 20:1 21:1 22:0.444 23:0.066 24:0.066 25:0.066 26:0.066 27:0.066 28:0.066 29:0.622 30:1 31:1 32:0.524 33:1 34:0.644 35:1 36:1 37:1 38:0.066 39:0.066 40:0.066 41:0.066 42:0.444 43:0.244 44:0.066 45:0.066 46:0.244 47:1 48:1 49:1 50:1 51:0.244 52:0.696 53:1 54:1 55:0.244 56:0.066 57:0.244 58:1 59:1 60:1 61:0.244 62:0.066 63:0.066 64:0.822 65:1 66:1 67:1 68:0.444 69:1 70:1 71:0.8 72:0.066 73:0.066 74:0.622 75:1 76:1 77:1 78:0.622 79:0.066 80:0.066 81:0.444 82:1 83:1 84:1 85:1 86:0.622 87:1 88:0.822 89:0.066 90:0.266 91:0.444 92:1 93:1 94:1 95:0.444 96:0.066 97:0.066 98:0.644 99:1 100:1 101:1 102:1 103:0.066 104:0.822 105:1 106:0.622 107:0.8 108:1 109:1 110:1 111:0.304 112:0.444 113:0.066 114:0.066 115:0.8 116:1 117:1 118:1 119:1 120:0.066 121:0.444 122:1 123:1 124:0.386 125:1 126:1 127:1 128:1 129:0.244 130:0.066 131:0.244 132:0.978 133:1 134:1 135:1 136:1 137:0.066 138:0.244 139:0.822 140:1 141:1 142:0.564 143:1 144:1 145:0.422 146:0.066 147:0.066 148:0.622 149:1 150:1 151:1 152:1 153:0.388 154:0.066 155:0.066 156:0.444 157:1 158:1 159:1 160:1 161:1 162:0.266 163:0.066 164:0.266 165:1 166:1 167:1 168:1 169:1 170:1 171:0.066 172:0.066 173:0.066 174:1 175:1 176:1 177:1 178:0.622 179:0.066 180:0.066 181:0.444 182:1 183:1 184:1 185:0.8 186:1 187:0.342 188:0.444 189:0.066 190:0.066 191:0.622 192:1 193:1 194:1 195:0.244 196:0.066 197:0.244 198:1 199:1 200:0.644 201:0.244 202:0.066 203:0.622 204:1 205:0.8 206:0.244 207:0.066 208:0.266 209:1 210:1 211:0.066 212:0.066 213:0.066 214:0.244 215:0.444 216:0.266 217:0.066 218:0.066 219:0.066 220:0.244 221:1 222:1 223:0.266 224:0.266 225:0.444 226:1 227:1 228:0.622 229:0.066 230:0.066 231:0.066 232:0.066 233:0.066 234:0.066 235:0.244 236:0.444 237:0.622 238:1 239:1 240:0.822 241:1 242:1 243:1 244:1 245:0.244 246:0.066 247:0.066 248:0.066 249:0.066 250:0.244 251:0.244 252:0.302 253:1 254:1 255:1 256:1 257:1 258:1 259:1 260:1 261:1 262:0.444 263:0.066 264:0.266 265:0.444 266:0.822 267:1 268:1 269:1 270:1 271:1 272:1 273:1 274:1 275:1 276:0.186 277:1 278:0.38 279:0.444 280:0.622 281:1 282:1 283:1 284:1 285:1 286:1 287:1 288:1 289:1 290:1 291:1 292:1 293:1 294:1 295:1 296:1 297:1 298:1 299:1 300:1 301:1 302:1 303:0.704 304:1 305:1 306:1 307:0.222 308:1 309:1 310:1 311:1 312:1 313:1 314:1 315:1 316:1 317:1 318:1 319:1 320:1 321:1 322:1 323:1 324:1 325:1 326:1 327:1 328:1 329:1 330:1 331:1 332:1 333:1 334:1 335:1 336:1 337:1 338:1 339:1 340:1 341:1 342:1 343:0.638 344:1 345:1 346:1 347:1 348:1 349:1 350:1 351:1 352:1 353:1 354:1 355:1 356:1 357:1 
0.00338998848539218 0 0 0.004553429354516297 0 0 0.0006129271287693237 0 0.001682929397197731 0 0.003109551456930354 0.002785826344293174 0 0.001798142468986963 0.0008898354878412648 0.001208614890942226 0 0.007088737326858398 0.0007310810525763094 0 0.001555937813678026 0 0 0.0008944185075739871 0.0036994447833508 0.002805346808776328 0 0.006680214315218471 0 0.002523493776494545 0 0 0.0005870096436740137 1:1 2:1 3:1 4:1 5:1 6:1 7:1 8:1 9:0.8 10:0.822 11:1 12:1 13:0.652 14:1 15:1 16:1 17:1 18:1 19:1 20:1 21:1 22:1 23:1 24:0.822 25:0.244 26:0.266 27:0.066 28:0.266 29:0.244 30:0.822 31:1 32:1 33:1 34:1 35:0.162 36:1 37:1 38:0.206 39:1 40:0.822 41:0.066 42:0.066 43:0.066 44:0.066 45:0.066 46:0.066 47:0.066 48:0.444 49:1 50:1 51:1 52:1 53:1 54:1 55:1 56:1 57:0.244 58:0.066 59:0.066 60:0.444 61:0.8 62:0.622 63:0.244 64:0.066 65:0.066 66:0.822 67:1 68:1 69:1 70:1 71:1 72:0.342 73:0.8 74:0.444 75:0.066 76:0.066 77:0.504 78:1 79:1 80:0.622 81:0.066 82:0.066 83:0.444 84:1 85:1 86:1 87:1 88:1 89:1 90:1 91:1 92:1 93:0.822 94:1 95:0.482 96:1 97:0.622 98:0.066 99:0.066 100:0.444 101:1 102:1 103:1 104:1 105:1 106:1 107:0.238 108:1 109:0.2 110:1 111:0.592 112:1 113:1 114:0.104 115:0.066 116:0.066 117:0.044 118:1 119:0.622 120:1 121:1 122:1 123:1 124:1 125:1 126:1 127:1 128:1 129:1 130:0.644 131:0.066 132:0.066 133:0.244 134:0.222 135:1 136:0.266 137:1 138:1 139:1 140:1 141:1 142:1 143:1 144:1 145:0.8 146:0.444 147:0.066 148:0.066 149:0.066 150:0.622 151:1 152:0.822 153:0.066 154:1 155:1 156:1 157:1 158:1 159:1 160:1 161:0.622 162:0.266 163:0.066 164:0.066 165:0.244 166:0.822 167:1 168:1 169:0.022 170:0.066 171:1 172:1 173:1 174:1 175:1 176:1 177:0.244 178:0.066 179:0.066 180:0.066 181:0.244 182:0.822 183:1 184:1 185:1 186:1 187:0.066 188:1 189:1 190:1 191:1 192:0.822 193:0.244 194:0.066 195:0.066 196:0.266 197:0.444 198:1 199:1 200:1 201:1 202:1 203:1 204:0.266 205:1 206:1 207:1 208:1 209:0.066 210:0.066 211:0.066 212:0.266 213:0.8 214:1 215:1 216:1 217:1 218:0.528 219:1 220:1 221:0.222 222:1 223:1 224:1 225:0.244 226:0.066 227:0.066 228:0.066 229:0.244 230:0.622 231:0.622 232:0.822 233:1 234:1 235:1 236:1 237:1 238:1 239:1 240:1 241:0.8 242:0.066 243:0.066 244:0.066 245:0.066 246:0.066 247:0.066 248:0.066 249:0.066 250:0.244 251:0.066 252:1 253:1 254:1 255:1 256:1 257:1 258:1 259:0.822 260:0.622 261:0.444 262:0.444 263:0.244 264:0.066 265:0.066 266:0.066 267:0.066 268:0.266 269:1 270:1 271:1 272:1 273:1 274:1 275:1 276:1 277:1 278:1 279:1 280:1 281:0.8 282:0.822 283:0.444 284:0.444 285:0.244 286:1 287:1 288:1 289:1 290:1 291:1 292:1 293:1 294:1 295:1 296:1 297:1 298:1 299:1 300:1 301:1 302:1 303:1 304:1 305:1 306:1 307:1 308:1 309:1 310:1 311:1 312:1 313:1 314:1 315:1 316:0.822 317:1 318:1 319:1 320:1 321:1 322:1 323:1 324:1 325:1 326:1 327:1 328:1 329:1 330:1 331:1 332:1 333:1 334:1 335:1 336:0.438 337:1 338:0.82 339:1 340:0.502 341:1 342:1 343:1 344:1 345:1 346:1 347:1 348:1 349:1 350:1 351:1 352:0.304 353:1 354:1 355:1 356:1 357:1 
0.006117502100288862 0 0 0 0.001257539567638456 0 0.003700610594070044 0.005516706782448716 0.0005852050486060601 0.001043876542847276 0.01088288323445103 0.002630617986671563 0 0.007106300598024302 0.006619903470515424 0.001080869828482892 0.001431953425362396 0.006556540976679707 0.009454007758837448 0.005757457766507064 0.01110501898306127 0.002426349456420409 0.00207213623255377 0.002993010711685195 0 0.01146340092956651 0 0.002503120221781243 0.00297906582405219 0.00328231460747022 0 0.007606650558874314 0 1:1 2:1 3:1 4:1 5:1 6:1 7:0.822 8:0.822 9:0.444 10:0.822 11:1 12:1 13:1 14:1 15:1 16:0.386 17:1 18:1 19:0.576 20:1 21:1 22:1 23:0.266 24:0.266 25:0.066 26:0.066 27:0.066 28:0.266 29:0.444 30:1 31:1 32:1 33:1 34:1 35:1 36:1 37:1 38:1 39:0.244 40:0.066 41:0.066 42:0.244 43:0.066 44:0.066 45:0.066 46:0.066 47:0.622 48:1 49:1 50:1 51:1 52:1 53:1 54:1 55:0.622 56:0.066 57:0.066 58:0.444 59:0.822 60:1 61:0.622 62:0.066 63:0.066 64:0.444 65:1 66:1 67:1 68:1 69:0.222 70:1 71:1 72:0.444 73:0.066 74:0.066 75:0.622 76:1 77:1 78:0.694 79:0.066 80:0.066 81:0.066 82:1 83:1 84:1 85:0.422 86:1 87:1 88:1 89:0.8 90:0.266 91:0.622 92:1 93:1 94:1 95:1 96:0.266 97:0.066 98:0.266 99:0.376 100:1 101:1 102:0.266 103:1 104:1 105:1 106:1 107:1 108:1 109:1 110:1 111:1 112:0.822 113:0.066 114:0.066 115:0.244 116:1 117:1 118:0.542 119:0.066 120:1 121:1 122:1 123:1 124:1 125:1 126:0 127:0.206 128:1 129:0.244 130:0.066 131:0.066 132:0.822 133:1 134:1 135:1 136:0.266 137:1 138:1 139:0.302 140:1 141:1 142:1 143:1 144:0.794 145:0.244 146:0.066 147:0.066 148:0.444 149:0.044 150:1 151:1 152:1 153:0.066 154:1 155:1 156:1 157:1 158:1 159:1 160:1 161:0.244 162:0.066 163:0.066 164:0.266 165:0.2 166:1 167:0.342 168:1 169:0.8 170:0.066 171:1 172:1 173:1 174:1 175:1 176:1 177:0.244 178:0.066 179:0.066 180:0.066 181:1 182:1 183:1 184:1 185:1 186:0.364 187:0.066 188:1 189:1 190:1 191:1 192:1 193:0.444 194:0.066 195:0.066 196:0.266 197:1 198:1 199:1 200:1 201:1 202:1 203:0.822 204:0.066 205:0.54 206:1 207:1 208:1 209:0.622 210:0.066 211:0.066 212:0.244 213:0.8 214:1 215:0.576 216:0.386 217:0.8 218:1 219:1 220:0.622 221:0.066 222:1 223:1 224:1 225:1 226:0.444 227:0.066 228:0.066 229:0.066 230:0.266 231:0.244 232:0.266 233:0.244 234:0.066 235:0.622 236:1 237:0.444 238:0.066 239:1 240:0.302 241:1 242:0.822 243:0.066 244:0.066 245:0.066 246:0.066 247:0.066 248:0.066 249:0.066 250:0.066 251:0.066 252:0.622 253:1 254:0.622 255:0.066 256:1 257:1 258:1 259:0.622 260:0.266 261:0.244 262:0.444 263:0.244 264:0.444 265:0.244 266:0.622 267:0.622 268:0.622 269:0.622 270:1 271:0.444 272:0.066 273:1 274:0.978 275:1 276:0.642 277:1 278:1 279:1 280:1 281:1 282:1 283:1 284:1 285:1 286:1 287:1 288:0.266 289:0.066 290:1 291:1 292:0.562 293:1 294:1 295:1 296:1 297:1 298:1 299:0.104 300:1 301:1 302:1 303:1 304:1 305:0.244 306:0.066 307:1 308:0.34 309:1 310:1 311:1 312:1 313:1 314:1 315:1 316:1 317:1 318:1 319:1 320:1 321:1 322:0.266 323:0.066 324:1 325:1 326:1 327:1 328:0.718 329:1 330:1 331:1 332:1 333:1 334:1 335:1 336:1 337:1 338:1 339:0.822 340:0.822 341:1 342:1 343:1 344:0.676 345:1 346:1 347:0.284 348:1 349:1 350:1 351:1 352:1 353:1 354:1 355:1 356:1 357:1 
0 0 0 0.01350836624310049 0.004562637528544982 0 0.004569416662829748 0.009184318249008155 0.008592699437997125 0.0123320782150289 0.01375091579298284 0 0 0.01739117234384231 0.005932753143612145 0.008788666425424118 0 0 0 0.01271543095638486 0.004409137411152349 0.005581052055882284 0.0005774409098421479 0.00735166655839696 0 0 0 0.008969597195137752 0.006437606365880527 0 0.008477225923076278 0.01321254962518958 0.003240013269149654 1:0.296 2:1 3:1 4:1 5:1 6:1 7:0.444 8:0.266 9:0.066 10:0.266 11:0.444 12:1 13:1 14:1 15:1 16:1 17:1 18:1 19:1 20:1 21:1 22:0.622 23:0.244 24:0.066 25:0.066 26:0.066 27:0.066 28:0.066 29:0.244 30:1 31:1 32:1 33:1 34:1 35:0.8 36:1 37:1 38:0.622 39:0.066 40:0.066 41:0.066 42:0.266 43:0.244 44:0.066 45:0.066 46:0.066 47:0.126 48:1 49:1 50:1 51:1 52:0.066 53:0.244 54:0.822 55:0.244 56:0.066 57:0.244 58:0.822 59:1 60:1 61:0.622 62:0.066 63:0.066 64:0.444 65:1 66:1 67:1 68:1 69:0.066 70:0.066 71:0.066 72:0.066 73:0.066 74:0.266 75:1 76:1 77:1 78:1 79:0.066 80:0.066 81:0.066 82:1 83:1 84:1 85:1 86:0.444 87:0.066 88:0.066 89:0.066 90:0.266 91:0.266 92:1 93:1 94:1 95:1 96:0.266 97:0.066 98:0.444 99:1 100:1 101:1 102:1 103:0.8 104:0.244 105:0.066 106:0.244 107:0.8 108:1 109:1 110:1 111:1 112:0.622 113:0.066 114:0.066 115:0.444 116:1 117:1 118:1 119:0.622 120:1 121:0.444 122:0.066 123:0.066 124:0.622 125:1 126:1 127:1 128:1 129:0.244 130:0.066 131:0.066 132:1 133:1 134:1 135:1 136:0.444 137:1 138:0.822 139:0.066 140:0.066 141:0.066 142:1 143:0.322 144:1 145:0.444 146:0.066 147:0.066 148:0.444 149:1 150:0.14 151:1 152:1 153:0.422 154:1 155:1 156:0.266 157:0.066 158:0.066 159:0.622 160:1 161:0.822 162:0.266 163:0.066 164:0.266 165:0.822 166:1 167:0.32 168:1 169:1 170:1 171:1 172:1 173:0.444 174:0.066 175:0.066 176:0.444 177:1 178:0.444 179:0.066 180:0.066 181:0.444 182:1 183:1 184:0.742 185:1 186:1 187:1 188:1 189:1 190:1 191:0.244 192:0.066 193:0.244 194:0.822 195:0.066 196:0.066 197:0.244 198:0.462 199:1 200:1 201:0.822 202:0.444 203:0.444 204:0.822 205:1 206:0.466 207:1 208:0.444 209:0.066 210:0.444 211:0.244 212:0.066 213:0.066 214:0.622 215:0.622 216:0.444 217:0.066 218:0.244 219:0.066 220:0.066 221:0.066 222:1 223:1 224:1 225:0.8 226:1 227:0.822 228:0.066 229:0.066 230:0.066 231:0.244 232:0.066 233:0.066 234:0.066 235:0.066 236:0.066 237:0.066 238:0.066 239:0.8 240:1 241:1 242:1 243:1 244:0.622 245:0.066 246:0.066 247:0.066 248:0.066 249:0.066 250:0.066 251:0.066 252:0.444 253:0.244 254:0.622 255:0.066 256:1 257:1 258:1 259:1 260:1 261:0.066 262:0.066 263:0.066 264:0.266 265:0.244 266:0.622 267:0.822 268:1 269:1 270:1 271:1 272:0.822 273:0.324 274:1 275:1 276:1 277:1 278:0.622 279:0.444 280:0.822 281:1 282:1 283:1 284:1 285:1 286:1 287:1 288:1 289:1 290:1 291:1 292:1 293:1 294:1 295:1 296:1 297:1 298:1 299:1 300:1 301:1 302:1 303:1 304:1 305:1 306:1 307:1 308:1 309:1 310:1 311:1 312:1 313:1 314:1 315:1 316:1 317:0.442 318:1 319:1 320:1 321:1 322:1 323:1 324:1 325:1 326:1 327:1 328:1 329:1 330:1 331:1 332:0.2 333:1 334:1 335:1 336:1 337:1 338:1 339:1 340:1 341:1 342:1 343:1 344:1 345:1 346:1 347:1 348:1 349:1 350:1 351:1 352:1 353:1 354:1 355:1 356:1 357:1 
0 0 0 0 0 0 0 0 0 0.00112761379292031 0 0 0 0.004546779713771933 0 0 0 0 0 0 0 0 0 0 0 0 0 0 0 0 0 0 0 1:1 2:1 3:1 4:1 5:1 6:1 7:1 8:0.822 9:0.8 10:0.822 11:1 12:1 13:1 14:1 15:1 16:1 17:1 18:1 19:1 20:1 21:1 22:1 23:0.444 24:0.266 25:0.066 26:0.066 27:0.066 28:0.266 29:0.444 30:1 31:1 32:1 33:1 34:1 35:1 36:1 37:1 38:1 39:0.444 40:0.066 41:0.066 42:0.066 43:0.066 44:0.066 45:0.066 46:0.066 47:0.444 48:1 49:1 50:1 51:1 52:1 53:1 54:1 55:0.822 56:0.266 57:0.066 58:0.266 59:0.622 60:1 61:0.622 62:0.066 63:0.066 64:0.266 65:1 66:1 67:1 68:1 69:0.326 70:1 71:1 72:0.622 73:0.066 74:0.066 75:0.444 76:1 77:1 78:1 79:0.244 80:0.066 81:0.066 82:0.822 83:1 84:1 85:1 86:1 87:1 88:1 89:0.578 90:0.644 91:0.622 92:0.822 93:1 94:1 95:1 96:0.266 97:0.066 98:0.066 99:0.822 100:1 101:1 102:1 103:0.066 104:1 105:1 106:1 107:1 108:1 109:1 110:1 111:1 112:1 113:0.066 114:0.066 115:0.066 116:1 117:1 118:1 119:1 120:0.066 121:0.244 122:1 123:0.324 124:1 125:1 126:1 127:1 128:1 129:0.444 130:0.066 131:0.066 132:0.622 133:1 134:1 135:1 136:0.48 137:0.066 138:0.444 139:1 140:1 141:1 142:1 143:1 144:1 145:0.422 146:0.066 147:0.066 148:0.266 149:1 150:1 151:1 152:1 153:1 154:0.066 155:0.244 156:1 157:0.482 158:1 159:1 160:1 161:0.444 162:0.066 163:0.066 164:0.266 165:0.8 166:1 167:1 168:1 169:1 170:1 171:0.066 172:0.622 173:1 174:1 175:1 176:1 177:0.244 178:0.066 179:0.066 180:0.244 181:0.8 182:1 183:1 184:0.526 185:1 186:1 187:0.554 188:0.066 189:0.066 190:1 191:1 192:1 193:0.622 194:0.066 195:0.066 196:0.266 197:0.8 198:1 199:1 200:1 201:0.17 202:1 203:1 204:0.384 205:0.066 206:0.622 207:1 208:0.794 209:0.126 210:0.066 211:0.066 212:0.066 213:0.622 214:1 215:1 216:1 217:1 218:1 219:1 220:1 221:1 222:0.066 223:0.444 224:1 225:1 226:0.444 227:0.066 228:0.066 229:0.066 230:0.244 231:0.244 232:0.266 233:0.244 234:0.266 235:0.622 236:1 237:1 238:1 239:0.066 240:0.622 241:1 242:0.822 243:0.066 244:0.066 245:0.066 246:0.066 247:0.066 248:0.066 249:0.066 250:0.066 251:0.066 252:0.622 253:0.162 254:1 255:1 256:0.066 257:0.444 258:1 259:0.622 260:0.244 261:0.244 262:0.266 263:0.244 264:0.444 265:0.244 266:0.444 267:0.244 268:0.444 269:0.184 270:1 271:1 272:1 273:0.622 274:0.822 275:1 276:1 277:1 278:1 279:0.2 280:1 281:1 282:1 283:1 284:1 285:1 286:1 287:1 288:0.82 289:1 290:1 291:1 292:1 293:1 294:1 295:1 296:1 297:1 298:1 299:1 300:1 301:1 302:0.74 303:1 304:1 305:1 306:0.882 307:1 308:1 309:1 310:1 311:1 312:1 313:1 314:1 315:1 316:1 317:1 318:1 319:1 320:1 321:1 322:1 323:1 324:1 325:1 326:1 327:1 328:1 329:1 330:1 331:0.542 332:1 333:1 334:1 335:1 336:1 337:1 338:1 339:1 340:1 341:0.118 342:1 343:1 344:0.386 345:1 346:1 347:1 348:0.638 349:1 350:1 351:1 352:1 353:1 354:1 355:1 356:1 357:0.022 
0 0.01278350885057846 0.002305949413429114 0.006951163324215501 0 0.002187039407054597 0.002637259370147016 0.008142602407547415 0.005095117959980786 0.005572025429962221 0.00532495948049428 0 0.00331825648989303 0.002948492853660328 0.007255682726208193 0 0 0.003671268298158681 0.01009650093602684 0.009812182279942532 0.001922090355258638 0.001565319010107114 0.004124376296063249 0.001722206230481326 0 0.01350709362509101 0 0.00576508998531221 0.01141015343957685 0.004002552214981953 0.01767426534639368 0.005556363262206154 0.002785713725478161 1:0.044 2:1 3:1 4:1 5:1 6:1 7:1 8:1 9:1 10:1 11:1 12:1 13:1 14:1 15:1 16:1 17:1 18:1 19:1 20:1 21:1 22:1 23:0.77 24:1 25:0.8 26:0.444 27:0.244 28:0.444 29:0.066 30:0.34 31:1 32:0.672 33:1 34:1 35:1 36:1 37:0.362 38:1 39:1 40:1 41:0.622 42:0.066 43:0.066 44:0.066 45:0.066 46:0.066 47:0.066 48:0.622 49:1 50:1 51:1 52:0.814 53:1 54:1 55:1 56:1 57:0.822 58:0.266 59:0.066 60:0.066 61:0.244 62:0.444 63:0.066 64:0.066 65:0.066 66:0.822 67:1 68:0.89 69:1 70:1 71:1 72:1 73:1 74:1 75:0.422 76:0.244 77:0.422 78:1 79:1 80:0.822 81:0.066 82:0.066 83:0.066 84:1 85:1 86:1 87:0.46 88:1 89:1 90:1 91:1 92:1 93:0.822 94:1 95:1 96:1 97:1 98:0.266 99:0.066 100:0.066 101:0.622 102:0.444 103:1 104:0.444 105:0.444 106:1 107:0.556 108:1 109:1 110:1 111:1 112:1 113:1 114:0.822 115:0.066 116:0.066 117:0.066 118:0.244 119:0.066 120:0.444 121:0.066 122:0.066 123:0.244 124:1 125:1 126:1 127:1 128:1 129:0.542 130:1 131:0.444 132:0.066 133:0.066 134:0.266 135:0.244 136:0.822 137:0.066 138:0.066 139:0.066 140:0.822 141:1 142:1 143:1 144:0.88 145:0.244 146:0.822 147:0.244 148:0.066 149:0.066 150:0.066 151:0.066 152:0.622 153:1 154:0.066 155:0.244 156:0.822 157:1 158:1 159:1 160:1 161:0.622 162:0.444 163:0.066 164:0.066 165:0.066 166:0.244 167:0.066 168:0.066 169:0.8 170:1 171:0.066 172:0.822 173:1 174:1 175:1 176:0.622 177:0.066 178:0.066 179:0.066 180:0.066 181:0.066 182:0.444 183:0.422 184:0.066 185:0.066 186:0.822 187:1 188:0.822 189:1 190:1 191:0.8 192:0.444 193:0.066 194:0.066 195:0.066 196:0.266 197:0.444 198:0.822 199:1 200:0.622 201:0.066 202:0.066 203:0.622 204:1 205:1 206:1 207:0.622 208:0.066 209:0.066 210:0.066 211:0.066 212:0.444 213:0.8 214:1 215:1 216:1 217:0.8 218:0.066 219:0.066 220:0.444 221:1 222:1 223:0.044 224:0.266 225:0.066 226:0.066 227:0.066 228:0.266 229:0.066 230:1 231:1 232:1 233:1 234:1 235:0.066 236:0.066 237:0.244 238:0.634 239:1 240:1 241:0.422 242:0.244 243:0.066 244:0.066 245:0.066 246:0.066 247:0.066 248:0.066 249:0.444 250:1 251:1 252:0.244 253:0.066 254:0.066 255:1 256:1 257:1 258:1 259:1 260:0.822 261:0.444 262:0.244 263:0.066 264:0.066 265:0.066 266:0.066 267:0.244 268:0.8 269:0.244 270:0.066 271:0.244 272:1 273:1 274:1 275:1 276:1 277:1 278:0.41 279:1 280:0.282 281:0.244 282:0.066 283:0.066 284:0.444 285:1 286:0.444 287:0.444 288:0.622 289:0.822 290:1 291:1 292:1 293:1 294:1 295:1 296:0.644 297:1 298:1 299:0.822 300:0.622 301:0.304 302:1 303:0.244 304:1 305:1 306:1 307:1 308:1 309:1 310:1 311:1 312:1 313:1 314:1 315:1 316:1 317:1 318:1 319:1 320:1 321:1 322:1 323:1 324:1 325:1 326:1 327:1 328:1 329:1 330:1 331:0.756 332:0.498 333:1 334:1 335:1 336:0.518 337:1 338:1 339:1 340:1 341:1 342:1 343:1 344:1 345:1 346:1 347:1 348:0.794 349:1 350:1 351:1 352:1 353:1 354:1 355:1 356:1 357:1 
0 0 0 0.0008873303294687998 0 0 0 0 0 0 0 0.01027579889316924 0 0 0 0 0 0 0 0 0.00528863001638608 0 0 0 0 0.01286879294669354 0 0.002253556372029941 0 0 0 0 0 1:1 2:1 3:1 4:1 5:1 6:1 7:0.822 8:0.622 9:0.444 10:0.622 11:0.622 12:1 13:1 14:1 15:0.32 16:0.104 17:0.622 18:1 19:1 20:1 21:1 22:1 23:0.622 24:0.266 25:0.066 26:0.066 27:0.066 28:0.066 29:0.244 30:0.822 31:1 32:1 33:0.244 34:0.066 35:1 36:1 37:1 38:1 39:0.622 40:0.066 41:0.066 42:0.066 43:0.066 44:0.244 45:0.066 46:0.066 47:0.066 48:1 49:1 50:0.244 51:0.066 52:1 53:1 54:1 55:0.696 56:0.444 57:0.066 58:0.066 59:0.622 60:1 61:1 62:0.444 63:0.066 64:0.066 65:0.444 66:1 67:0.244 68:0.066 69:1 70:1 71:0.46 72:1 73:0.422 74:0.266 75:0.066 76:1 77:1 78:1 79:0.8 80:0.066 81:0.066 82:0.266 83:1 84:0.266 85:0.066 86:1 87:1 88:1 89:1 90:1 91:0.68 92:1 93:1 94:1 95:0.502 96:0.822 97:0.066 98:0.066 99:0.244 100:1 101:0.244 102:0.066 103:1 104:1 105:1 106:1 107:1 108:1 109:1 110:1 111:1 112:1 113:0.244 114:0.066 115:0.066 116:0.622 117:1 118:0.444 119:0.066 120:1 121:1 122:1 123:1 124:1 125:1 126:1 127:1 128:1 129:0.444 130:0.066 131:0.066 132:0.266 133:1 134:1 135:0.622 136:0.066 137:1 138:1 139:0.532 140:1 141:1 142:1 143:1 144:1 145:0.244 146:0.066 147:0.066 148:0.244 149:0.8 150:1 151:1 152:0.644 153:0.066 154:1 155:1 156:1 157:1 158:1 159:1 160:0.822 161:0.244 162:0.066 163:0.066 164:0.266 165:0.8 166:1 167:1 168:1 169:0.8 170:0.066 171:0.594 172:1 173:1 174:1 175:1 176:0.622 177:0.066 178:0.066 179:0.066 180:0.066 181:0.8 182:1 183:0.326 184:1 185:1 186:0.822 187:0.066 188:1 189:1 190:1 191:1 192:0.622 193:0.066 194:0.066 195:0.066 196:0.622 197:1 198:1 199:1 200:1 201:1 202:1 203:1 204:0.266 205:1 206:1 207:1 208:0.822 209:0.066 210:0.066 211:0.066 212:0.622 213:1 214:1 215:1 216:0.468 217:1 218:1 219:1 220:1 221:0.066 222:1 223:1 224:1 225:0.244 226:0.066 227:0.066 228:0.066 229:0.066 230:0.266 231:0.066 232:0.266 233:0.244 234:0.622 235:0.852 236:1 237:1 238:0.444 239:1 240:1 241:0.622 242:0.066 243:0.066 244:0.066 245:0.066 246:0.066 247:0.066 248:0.066 249:0.066 250:0.066 251:0.244 252:0.778 253:1 254:1 255:0.066 256:1 257:1 258:1 259:0.822 260:0.822 261:0.186 262:0.244 263:0.622 264:0.444 265:0.244 266:0.126 267:0.244 268:0.444 269:0.496 270:1 271:1 272:0.444 273:1 274:1 275:1 276:1 277:1 278:1 279:1 280:0.542 281:1 282:1 283:1 284:1 285:1 286:1 287:1 288:1 289:1 290:1 291:0.424 292:1 293:1 294:1 295:1 296:1 297:1 298:1 299:1 300:1 301:1 302:1 303:1 304:1 305:1 306:0.58 307:1 308:0.586 309:1 310:1 311:1 312:1 313:1 314:1 315:1 316:1 317:1 318:1 319:1 320:1 321:1 322:1 323:1 324:1 325:1 326:1 327:1 328:1 329:1 330:1 331:1 332:1 333:0.246 334:0.792 335:0.306 336:1 337:1 338:1 339:0.496 340:1 341:1 342:1 343:1 344:1 345:1 346:1 347:1 348:1 349:1 350:1 351:1 352:1 353:1 354:1 355:1 356:1 357:1 
0.000442450798676001 0 0 0 0 0 0.002971658699131014 0 0 0 0.005105991136198484 0 0.0003586860569387334 0 0 0 0 0.00662487144722496 0 0 0 0 0 0 0 0 0 0 0 0 0 0 0 1:1 2:1 3:1 4:1 5:0.578 6:1 7:1 8:1 9:0.8 10:0.822 11:1 12:1 13:1 14:1 15:1 16:0.674 17:0.42 18:1 19:1 20:1 21:1 22:0.518 23:0.282 24:0.266 25:0.066 26:0.066 27:0.066 28:0.266 29:0.444 30:1 31:1 32:1 33:1 34:1 35:1 36:1 37:1 38:1 39:0.622 40:0.066 41:0.066 42:0.066 43:0.066 44:0.066 45:0.066 46:0.066 47:0.422 48:1 49:1 50:1 51:0.622 52:1 53:1 54:1 55:1 56:0.444 57:0.066 58:0.066 59:0.622 60:0.822 61:0.622 62:0.266 63:0.066 64:0.066 65:0.822 66:1 67:1 68:0.266 69:1 70:1 71:1 72:0.822 73:0.066 74:0.066 75:0.244 76:1 77:1 78:1 79:0.444 80:0.066 81:0.066 82:0.622 83:1 84:1 85:0.066 86:1 87:1 88:1 89:1 90:0.622 91:0.622 92:0.822 93:1 94:1 95:1 96:0.622 97:0.066 98:0.066 99:0.622 100:1 101:1 102:0.822 103:1 104:1 105:1 106:1 107:1 108:1 109:1 110:1 111:1 112:1 113:0.244 114:0.066 115:0.066 116:0.822 117:1 118:1 119:1 120:1 121:1 122:0.348 123:1 124:1 125:1 126:1 127:0.14 128:1 129:0.126 130:0.066 131:0.066 132:0.444 133:1 134:1 135:1 136:1 137:0.178 138:1 139:1 140:1 141:1 142:1 143:0.682 144:1 145:0.622 146:0.066 147:0.066 148:0.244 149:0.8 150:1 151:1 152:1 153:1 154:1 155:1 156:1 157:1 158:1 159:1 160:1 161:0.164 162:0.066 163:0.066 164:0.066 165:0.622 166:1 167:1 168:1 169:1 170:0.458 171:1 172:1 173:1 174:1 175:1 176:1 177:0.622 178:0.066 179:0.066 180:0.066 181:0.622 182:1 183:1 184:1 185:0.24 186:1 187:1 188:1 189:1 190:1 191:1 192:1 193:0.622 194:0.066 195:0.066 196:0.066 197:0.622 198:1 199:1 200:1 201:0.178 202:1 203:1 204:1 205:1 206:1 207:1 208:1 209:0.8 210:0.244 211:0.066 212:0.066 213:0.622 214:0.496 215:1 216:1 217:1 218:1 219:1 220:1 221:1 222:1 223:1 224:1 225:1 226:0.444 227:0.066 228:0.066 229:0.066 230:0.444 231:0.244 232:0.266 233:0.244 234:0.444 235:0.622 236:1 237:1 238:1 239:1 240:0.564 241:1 242:0.822 243:0.066 244:0.066 245:0.066 246:0.066 247:0.066 248:0.066 249:0.066 250:0.066 251:0.066 252:0.622 253:1 254:1 255:0.8 256:0.562 257:1 258:1 259:0.622 260:0.266 261:0.244 262:0.266 263:0.244 264:0.266 265:0.244 266:0.444 267:0.244 268:0.444 269:0.444 270:1 271:1 272:0.622 273:1 274:1 275:1 276:1 277:1 278:1 279:1 280:1 281:1 282:1 283:0.082 284:1 285:1 286:1 287:1 288:1 289:1 290:1 291:1 292:1 293:1 294:1 295:1 296:1 297:1 298:1 299:1 300:1 301:1 302:1 303:1 304:1 305:1 306:1 307:1 308:1 309:0.66 310:0.324 311:1 312:1 313:1 314:1 315:1 316:1 317:1 318:1 319:1 320:1 321:1 322:1 323:1 324:1 325:0.734 326:1 327:1 328:1 329:1 330:1 331:1 332:1 333:1 334:1 335:1 336:1 337:1 338:0.52 339:1 340:1 341:1 342:1 343:1 344:1 345:1 346:1 347:0.34 348:1 349:1 350:1 351:1 352:1 353:0.658 354:1 355:1 356:1 357:1 
0.008984231841233613 0 0.0181182318083048 0.008832776425891632 0.007137815751536067 0.003764773376011312 0.01613869592292302 8.153808594798712e-05 0.002406002305636826 0.004487459214349397 0.02117751822709889 0.0155688634205675 0 0.01394728902590764 0.002232455554555251 0.004404019374970229 0.009054912868856735 0.003593222479945902 0.005920728779772054 0.004536752618752022 0.009249196567895761 0.01038496708206136 0.001294747104329042 0.01113172673040425 0.01296099647424706 0.007934468127958937 0 0.003311753735017714 0.001862144347186486 0.006601120349757109 0.004792173073116117 0.01583185323963474 0.0007299377585508961 1:1 2:1 3:0.362 4:1 5:1 6:1 7:1 8:1 9:0.622 10:0.622 11:0.444 12:0.622 13:0.8 14:1 15:1 16:1 17:1 18:1 19:1 20:1 21:1 22:1 23:1 24:1 25:0.244 26:0.066 27:0.066 28:0.066 29:0.066 30:0.266 31:0.444 32:1 33:1 34:1 35:0.622 36:1 37:1 38:0.328 39:1 40:1 41:0.244 42:0.066 43:0.066 44:0.066 45:0.066 46:0.066 47:0.066 48:0.066 49:0.244 50:1 51:0.682 52:0.266 53:1 54:1 55:1 56:1 57:1 58:0.644 59:0.244 60:0.066 61:0.622 62:1 63:0.8 64:0.266 65:0.066 66:0.066 67:0.8 68:1 69:0.066 70:0.822 71:1 72:1 73:1 74:1 75:1 76:1 77:0.622 78:1 79:1 80:1 81:0.622 82:0.066 83:0.066 84:0.444 85:1 86:0.066 87:0.822 88:1 89:1 90:1 91:1 92:1 93:1 94:1 95:0.58 96:0.496 97:1 98:0.644 99:0.066 100:0.066 101:0.444 102:1 103:0.244 104:1 105:1 106:1 107:1 108:1 109:1 110:1 111:1 112:1 113:1 114:1 115:0.244 116:0.066 117:0.066 118:0.622 119:1 120:1 121:1 122:1 123:1 124:1 125:1 126:1 127:1 128:1 129:1 130:0.822 131:0.244 132:0.066 133:0.066 134:0.444 135:1 136:1 137:0.622 138:1 139:0.458 140:0.564 141:1 142:1 143:1 144:0.184 145:0.422 146:0.244 147:0.066 148:0.066 149:0.066 150:0.244 151:0.8 152:1 153:1 154:0.066 155:0.8 156:1 157:1 158:0.836 159:0.28 160:0.444 161:0.066 162:0.066 163:0.066 164:0.066 165:0.066 166:0.444 167:0.822 168:1 169:1 170:1 171:0.066 172:0.444 173:1 174:0.822 175:0.244 176:0.066 177:0.066 178:0.066 179:0.066 180:0.244 181:0.244 182:0.822 183:1 184:1 185:1 186:1 187:1 188:0.066 189:0.244 190:0.822 191:0.244 192:0.066 193:0.066 194:0.066 195:0.244 196:0.822 197:1 198:1 199:1 200:1 201:0.46 202:1 203:1 204:0.54 205:0.066 206:0.266 207:0.066 208:0.066 209:0.066 210:0.066 211:0.066 212:0.622 213:1 214:0.72 215:1 216:1 217:1 218:1 219:1 220:1 221:1 222:0.066 223:0.622 224:0.444 225:0.066 226:0.066 227:0.066 228:0.066 229:0.066 230:0.266 231:0.622 232:1 233:1 234:1 235:1 236:0.46 237:1 238:1 239:0.244 240:1 241:1 242:0.918 243:0.622 244:0.266 245:0.066 246:0.066 247:0.066 248:0.066 249:0.066 250:0.444 251:0.822 252:1 253:1 254:1 255:1 256:1 257:1 258:1 259:1 260:1 261:1 262:0.822 263:0.066 264:0.266 265:0.066 266:0.066 267:0.444 268:1 269:1 270:1 271:1 272:1 273:1 274:1 275:1 276:1 277:1 278:1 279:1 280:1 281:1 282:0.622 283:0.244 284:0.644 285:1 286:1 287:1 288:1 289:1 290:1 291:1 292:1 293:1 294:1 295:1 296:1 297:1 298:1 299:0.934 300:1 301:1 302:1 303:1 304:1 305:1 306:1 307:1 308:1 309:0.556 310:1 311:1 312:1 313:1 314:1 315:1 316:1 317:1 318:1 319:1 320:1 321:1 322:0.56 323:1 324:1 325:1 326:1 327:0.304 328:1 329:1 330:1 331:0.482 332:1 333:1 334:1 335:1 336:1 337:1 338:0.704 339:1 340:1 341:1 342:1 343:1 344:1 345:1 346:1 347:1 348:1 349:1 350:1 351:1 352:1 353:1 354:1 355:1 356:1 357:1 
0.01147052670815647 0.001729969098462528 0.02277501928991228 0.008563760880679632 0.01057487238068064 0.01562435144532593 0.01728624904601713 0.005172316594187159 0.008527271757782425 0.005323956294381354 0.009302826331535301 0.02995762847474383 0.02079197520239745 0.00882189041913508 0.007848608340135142 0.01179892025316357 0.02115590054216935 0.01693069042223493 0.01063438086502502 0.003943973079343118 0.01167519284331922 0.006204614752833703 0.01155155107685491 0.007789522178010445 0.02639770219981946 0.0276824566792994 0.01854913694534593 0.01396746969831398 0.01769558277773838 0.0181862958399908 0.01233128135336335 0.008049987703726903 0.003742205130917823 1:1 2:1 3:1 4:1 5:0.622 6:0.444 7:0.066 8:0.066 9:0.066 10:0.244 11:0.622 12:1 13:1 14:1 15:1 16:1 17:1 18:1 19:1 20:1 21:0.622 22:0.066 23:0.066 24:0.066 25:0.066 26:0.066 27:0.066 28:0.066 29:0.8 30:1 31:1 32:1 33:1 34:0.502 35:0.6 36:1 37:0.622 38:0.066 39:0.066 40:0.244 41:0.422 42:0.622 43:0.244 44:0.066 45:0.066 46:0.266 47:1 48:0.364 49:1 50:1 51:1 52:1 53:1 54:0.444 55:0.066 56:0.066 57:0.162 58:1 59:1 60:1 61:0.244 62:0.066 63:0.244 64:1 65:1 66:1 67:1 68:1 69:0.476 70:1 71:0.244 72:0.066 73:0.066 74:1 75:1 76:1 77:1 78:0.266 79:0.066 80:0.066 81:0.8 82:1 83:1 84:1 85:1 86:1 87:1 88:0.266 89:0.066 90:0.266 91:0.8 92:1 93:1 94:1 95:0.244 96:0.066 97:0.066 98:1 99:0.83 100:1 101:0.444 102:0.266 103:1 104:1 105:0.622 106:0.822 107:1 108:0.246 109:1 110:0.502 111:0.8 112:0.244 113:0.066 114:0.244 115:1 116:0.23 117:1 118:1 119:0.066 120:1 121:0.222 122:1 123:0.682 124:0.442 125:1 126:1 127:1 128:0.622 129:0.066 130:0.066 131:0.622 132:1 133:1 134:1 135:1 136:0.244 137:0.48 138:0.52 139:1 140:1 141:1 142:0.816 143:1 144:1 145:0.066 146:0.066 147:0.066 148:1 149:1 150:1 151:1 152:1 153:0.8 154:1 155:1 156:1 157:1 158:1 159:1 160:0.72 161:0.622 162:0.066 163:0.066 164:0.444 165:1 166:1 167:1 168:1 169:1 170:1 171:1 172:1 173:1 174:1 175:1 176:1 177:1 178:0.244 179:0.066 180:0.066 181:0.8 182:1 183:1 184:0.822 185:0.244 186:0.822 187:1 188:1 189:1 190:1 191:0.658 192:1 193:1 194:1 195:0.244 196:0.066 197:0.244 198:1 199:0.622 200:0.444 201:0.066 202:0.066 203:0.444 204:1 205:1 206:1 207:1 208:1 209:1 210:1 211:0.622 212:0.066 213:0.066 214:0.244 215:0.066 216:0.066 217:0.066 218:0.066 219:0.066 220:0.266 221:1 222:1 223:1 224:1 225:1 226:1 227:1 228:0.266 229:0.066 230:0.066 231:0.066 232:0.066 233:0.066 234:0.066 235:0.244 236:0.644 237:1 238:0.756 239:0.978 240:1 241:1 242:0.326 243:1 244:1 245:0.244 246:0.066 247:0.066 248:0.066 249:0.066 250:0.444 251:0.266 252:1 253:1 254:1 255:0.534 256:1 257:1 258:1 259:1 260:1 261:1 262:0.444 263:0.066 264:0.266 265:0.066 266:1 267:1 268:1 269:1 270:1 271:1 272:1 273:1 274:1 275:0.852 276:1 277:1 278:1 279:0.622 280:0.622 281:1 282:1 283:1 284:1 285:1 286:1 287:1 288:1 289:1 290:1 291:0.696 292:1 293:1 294:1 295:1 296:1 297:1 298:1 299:1 300:1 301:1 302:1 303:1 304:1 305:1 306:1 307:1 308:1 309:1 310:1 311:1 312:1 313:1 314:1 315:1 316:1 317:1 318:1 319:1 320:1 321:1 322:1 323:1 324:1 325:1 326:1 327:1 328:1 329:1 330:1 331:1 332:1 333:1 334:1 335:1 336:1 337:1 338:1 339:1 340:1 341:1 342:1 343:1 344:1 345:1 346:1 347:1 348:1 349:1 350:1 351:1 352:1 353:0.778 354:1 355:1 356:1 357:1 
0 0 0 4.136497220834017e-05 0 0 0 0 0 0 0.003580399733688184 0 0 0 0 0 0 0 0 0 0.0002353439075452373 0 0 0 0 0 0 0 0 0 0 0.005333172967524918 0 1:0.622 2:1 3:1 4:1 5:1 6:1 7:1 8:0.244 9:0.244 10:0.266 11:0.422 12:0.822 13:1 14:0.732 15:0.86 16:1 17:1 18:0.622 19:1 20:1 21:1 22:1 23:0.822 24:0.266 25:0.066 26:0.066 27:0.066 28:0.066 29:0.066 30:0.444 31:0.8 32:1 33:1 34:1 35:0.244 36:1 37:1 38:1 39:1 40:0.066 41:0.066 42:0.066 43:0.066 44:0.066 45:0.066 46:0.066 47:0.066 48:0.244 49:1 50:1 51:1 52:0.266 53:1 54:1 55:1 56:1 57:0.244 58:0.066 59:0.244 60:0.822 61:1 62:0.614 63:0.444 64:0.066 65:0.066 66:0.644 67:0.702 68:0.76 69:0.066 70:0.822 71:1 72:1 73:1 74:1 75:0.622 76:0.622 77:1 78:1 79:1 80:0.822 81:0.066 82:0.066 83:0.244 84:1 85:1 86:0.066 87:0.622 88:1 89:1 90:1 91:1 92:1 93:1 94:1 95:1 96:0.72 97:0.622 98:0.066 99:0.066 100:0.444 101:0.444 102:0.066 103:0.066 104:0.444 105:1 106:1 107:0.696 108:1 109:1 110:1 111:1 112:1 113:0.8 114:0.066 115:0.066 116:0.066 117:0.622 118:0.8 119:0.066 120:0.066 121:0.244 122:1 123:1 124:1 125:0.326 126:1 127:1 128:1 129:0.622 130:0.266 131:0.066 132:0.066 133:0.244 134:1 135:0.822 136:0.066 137:0.066 138:0.244 139:0.822 140:1 141:1 142:1 143:1 144:0.822 145:0.244 146:0.066 147:0.066 148:0.066 149:0.066 150:0.822 151:1 152:0.822 153:0.066 154:0.066 155:0.066 156:0.644 157:1 158:0.672 159:0.822 160:0.444 161:0.066 162:0.066 163:0.066 164:0.066 165:0.244 166:0.444 167:1 168:1 169:1 170:0.266 171:0.066 172:0.066 173:0.244 174:1 175:0.622 176:0.244 177:0.066 178:0.066 179:0.066 180:0.266 181:0.622 182:0.266 183:1 184:0.438 185:1 186:1 187:0.066 188:0.066 189:0.066 190:0.444 191:0.444 192:0.066 193:0.066 194:0.066 195:0.066 196:0.422 197:1 198:1 199:1 200:1 201:1 202:1 203:0.494 204:0.266 205:0.066 206:0.066 207:0.066 208:0.066 209:0.066 210:0.066 211:0.066 212:0.822 213:1 214:1 215:1 216:1 217:1 218:1 219:1 220:1 221:0.244 222:0.444 223:0.066 224:0.066 225:0.066 226:0.066 227:0.066 228:0.066 229:0.066 230:0.266 231:0.444 232:0.822 233:1 234:1 235:0.202 236:1 237:1 238:0.444 239:0.622 240:0.066 241:0.244 242:0.266 243:0.066 244:0.066 245:0.066 246:0.066 247:0.066 248:0.066 249:0.066 250:0.244 251:0.8 252:1 253:1 254:1 255:0.8 256:1 257:1 258:0.444 259:1 260:1 261:0.822 262:0.644 263:0.244 264:0.184 265:0.066 266:0.066 267:0.244 268:1 269:1 270:1 271:1 272:1 273:1 274:1 275:1 276:0.68 277:0.52 278:1 279:1 280:1 281:1 282:0.822 283:0.444 284:0.444 285:1 286:1 287:1 288:1 289:1 290:1 291:1 292:1 293:1 294:0.934 295:1 296:1 297:1 298:1 299:1 300:1 301:1 302:1 303:1 304:1 305:1 306:0.676 307:1 308:1 309:1 310:1 311:1 312:1 313:1 314:1 315:1 316:1 317:1 318:1 319:1 320:1 321:1 322:1 323:1 324:1 325:1 326:1 327:1 328:1 329:1 330:1 331:1 332:1 333:1 334:1 335:1 336:1 337:1 338:1 339:1 340:1 341:1 342:1 343:1 344:1 345:1 346:1 347:1 348:1 349:1 350:1 351:1 352:0.934 353:0.416 354:1 355:1 356:1 357:1 
0.003556483304508421 0 0 0 0 0.001958010547677769 0.004046274759919696 0 0 0 0.004006556018207027 0.00697106820313436 0.009849341295110482 0 0 0 0.0004448888791404413 0.003975604510262591 0 0 0 0.001208453528097145 0 0.002886539975814143 0.005123252742934838 0 0 0 0.001962638271826675 0.002948701388541008 0 0 0 1:1 2:0.26 3:1 4:1 5:1 6:1 7:1 8:1 9:1 10:1 11:1 12:1 13:1 14:1 15:0.534 16:1 17:1 18:1 19:1 20:1 21:1 22:1 23:1 24:1 25:0.244 26:0.266 27:0.066 28:0.266 29:0.444 30:1 31:1 32:1 33:1 34:1 35:1 36:1 37:1 38:1 39:1 40:0.822 41:0.066 42:0.066 43:0.066 44:0.066 45:0.066 46:0.066 47:0.066 48:0.822 49:1 50:0.592 51:1 52:1 53:1 54:1 55:0.624 56:1 57:0.244 58:0.066 59:0.066 60:0.444 61:0.444 62:0.444 63:0.066 64:0.066 65:0.244 66:1 67:1 68:1 69:0.244 70:1 71:1 72:1 73:1 74:0.622 75:0.244 76:0.266 77:1 78:1 79:1 80:0.444 81:0.066 82:0.066 83:0.622 84:1 85:1 86:0.244 87:1 88:1 89:1 90:1 91:1 92:1 93:1 94:0.266 95:1 96:1 97:0.444 98:0.066 99:0.066 100:0.622 101:1 102:1 103:0.8 104:1 105:1 106:1 107:1 108:1 109:1 110:1 111:1 112:1 113:1 114:0.444 115:0.066 116:0.066 117:0.622 118:1 119:1 120:1 121:1 122:1 123:1 124:1 125:1 126:1 127:1 128:1 129:1 130:0.444 131:0.066 132:0.066 133:0.244 134:1 135:1 136:1 137:1 138:1 139:1 140:1 141:1 142:1 143:1 144:1 145:0.622 146:0.266 147:0.066 148:0.066 149:0.066 150:0.622 151:1 152:1 153:1 154:1 155:1 156:1 157:1 158:1 159:1 160:0.644 161:0.066 162:0.066 163:0.066 164:0.066 165:0.244 166:0.822 167:1 168:0.528 169:1 170:1 171:0.082 172:1 173:1 174:1 175:0.622 176:0.444 177:0.066 178:0.066 179:0.066 180:0.244 181:0.244 182:1 183:1 184:1 185:1 186:1 187:1 188:1 189:1 190:1 191:0.622 192:0.066 193:0.066 194:0.066 195:0.244 196:0.444 197:0.822 198:1 199:1 200:1 201:1 202:1 203:1 204:1 205:0.244 206:0.822 207:0.444 208:0.066 209:0.066 210:0.066 211:0.244 212:1 213:1 214:1 215:1 216:1 217:1 218:1 219:1 220:1 221:1 222:0.066 223:0.244 224:0.244 225:0.066 226:0.066 227:0.066 228:0.266 229:0.244 230:0.644 231:0.822 232:1 233:1 234:1 235:1 236:1 237:1 238:1 239:0.066 240:0.066 241:0.066 242:0.244 243:0.066 244:0.066 245:0.066 246:0.066 247:0.066 248:0.066 249:0.044 250:0.622 251:1 252:1 253:0.364 254:1 255:1 256:0.622 257:0.8 258:1 259:1 260:1 261:0.622 262:0.244 263:0.244 264:0.066 265:0.066 266:0.066 267:0.444 268:1 269:1 270:1 271:1 272:0.76 273:1 274:1 275:1 276:1 277:1 278:1 279:1 280:1 281:0.622 282:0.444 283:0.066 284:0.822 285:1 286:1 287:1 288:1 289:1 290:1 291:1 292:1 293:1 294:1 295:1 296:1 297:0.378 298:1 299:1 300:1 301:1 302:1 303:1 304:1 305:1 306:1 307:1 308:1 309:1 310:1 311:1 312:1 313:1 314:0.822 315:1 316:1 317:1 318:1 319:1 320:1 321:1 322:1 323:0.458 324:1 325:1 326:1 327:1 328:1 329:1 330:1 331:1 332:0.592 333:1 334:1 335:1 336:1 337:1 338:1 339:1 340:1 341:1 342:1 343:1 344:1 345:1 346:1 347:1 348:1 349:1 350:1 351:1 352:1 353:1 354:1 355:0.2 356:1 357:1 
0 0 0 0.0007238896377502604 0 0 0 0 0 0 0.0004571554619727911 0 0 0.0007661290054443214 0 0 0 0 0 0 0.004132367656919295 0 0 0 0 0.003281301239379336 0 0 0 0 0 0 0 1:1 2:1 3:1 4:0.364 5:0.268 6:1 7:0.622 8:0.444 9:0.244 10:0.266 11:0.444 12:1 13:1 14:1 15:1 16:1 17:1 18:0.52 19:1 20:0.616 21:1 22:1 23:0.444 24:0.066 25:0.066 26:0.066 27:0.066 28:0.066 29:0.244 30:0.822 31:1 32:1 33:1 34:0.822 35:1 36:1 37:1 38:1 39:0.422 40:0.066 41:0.066 42:0.244 43:0.244 44:0.266 45:0.066 46:0.066 47:0.066 48:1 49:1 50:1 51:0.066 52:1 53:1 54:1 55:1 56:0.266 57:0.066 58:0.266 59:1 60:1 61:0.324 62:0.444 63:0.066 64:0.066 65:0.622 66:1 67:0.444 68:0.066 69:1 70:1 71:1 72:0.822 73:0.066 74:0.066 75:0.244 76:1 77:1 78:1 79:0.444 80:0.066 81:0.066 82:0.622 83:1 84:0.266 85:0.066 86:0.622 87:0.622 88:1 89:1 90:0.822 91:0.8 92:1 93:1 94:1 95:1 96:0.622 97:0.066 98:0.066 99:0.184 100:1 101:0.8 102:0.822 103:0.066 104:0.266 105:0.2 106:1 107:1 108:1 109:1 110:1 111:1 112:1 113:0.244 114:0.066 115:0.066 116:1 117:1 118:1 119:1 120:0.066 121:0.244 122:0.32 123:1 124:1 125:1 126:1 127:0.918 128:1 129:0.444 130:0.066 131:0.066 132:0.444 133:1 134:1 135:1 136:1 137:0.066 138:0.444 139:1 140:1 141:1 142:1 143:1 144:1 145:0.444 146:0.066 147:0.066 148:0.266 149:0.822 150:1 151:1 152:1 153:1 154:0.066 155:0.444 156:1 157:1 158:1 159:1 160:1 161:0.622 162:0.066 163:0.066 164:0.266 165:0.8 166:1 167:1 168:1 169:1 170:1 171:0.066 172:0.622 173:1 174:0.296 175:1 176:1 177:0.8 178:0.244 179:0.066 180:0.066 181:0.622 182:1 183:0.458 184:1 185:1 186:1 187:1 188:0.066 189:0.444 190:1 191:1 192:1 193:1 194:0.444 195:0.066 196:0.066 197:0.444 198:1 199:1 200:0.484 201:0.118 202:1 203:1 204:1 205:0.066 206:0.622 207:1 208:1 209:1 210:0.622 211:0.066 212:0.066 213:0.244 214:0.822 215:0.622 216:0.622 217:0.422 218:0.184 219:0.622 220:1 221:0.622 222:0.066 223:0.622 224:1 225:1 226:1 227:0.244 228:0.066 229:0.066 230:0.066 231:0.066 232:0.066 233:0.066 234:0.066 235:0.066 236:0.622 237:1 238:0.444 239:0.066 240:0.184 241:1 242:1 243:0.622 244:0.066 245:0.066 246:0.066 247:0.066 248:0.066 249:0.066 250:0.066 251:0.066 252:0.244 253:0.444 254:0.822 255:0.066 256:0.066 257:0.622 258:0.754 259:1 260:0.622 261:0.244 262:0.444 263:0.444 264:0.622 265:0.444 266:0.822 267:0.822 268:1 269:1 270:1 271:0.622 272:0.266 273:0.622 274:1 275:1 276:1 277:1 278:1 279:1 280:1 281:1 282:1 283:1 284:0.578 285:1 286:1 287:1 288:1 289:1 290:1 291:1 292:1 293:1 294:1 295:1 296:1 297:1 298:1 299:1 300:1 301:1 302:1 303:1 304:1 305:1 306:1 307:1 308:0.82 309:1 310:1 311:1 312:0.52 313:1 314:1 315:1 316:1 317:1 318:1 319:1 320:1 321:1 322:1 323:0.442 324:1 325:1 326:1 327:1 328:1 329:1 330:1 331:0.364 332:1 333:1 334:1 335:1 336:1 337:1 338:1 339:1 340:1 341:1 342:1 343:1 344:1 345:1 346:1 347:1 348:1 349:1 350:1 351:1 352:1 353:1 354:1 355:1 356:1 357:1 
0 0 0.002648018903078762 0 0 0 0 0 0 0 0.006066915607174584 0.007261878583030335 0 0 0 0 0.01159601148579219 0 0 0 0 0.001730387802977447 0 0 0.003497695750532176 0.001358983684070282 0 0 0 0 0 0.003322882805617515 0 1:1 2:1 3:1 4:1 5:1 6:1 7:0.822 8:0.622 9:0.244 10:0.066 11:0.244 12:0.622 13:1 14:1 15:1 16:0.598 17:1 18:0.444 19:0.444 20:0.822 21:1 22:1 23:0.622 24:0.266 25:0.066 26:0.066 27:0.066 28:0.066 29:0.066 30:0.444 31:1 32:0.246 33:1 34:1 35:0.066 36:0.066 37:0.444 38:1 39:1 40:0.244 41:0.066 42:0.066 43:0.244 44:0.444 45:0.066 46:0.066 47:0.066 48:0.444 49:1 50:1 51:1 52:0.066 53:0.066 54:0.822 55:1 56:0.822 57:0.066 58:0.066 59:0.444 60:1 61:0.11 62:1 63:0.244 64:0.066 65:0.244 66:1 67:1 68:1 69:0.066 70:0.066 71:0.8 72:1 73:0.622 74:0.444 75:0.066 76:0.822 77:1 78:1 79:1 80:0.266 81:0.066 82:0.066 83:0.8 84:1 85:0.066 86:0.066 87:0.244 88:1 89:1 90:1 91:0.518 92:1 93:1 94:1 95:1 96:1 97:0.244 98:0.066 99:0.244 100:1 101:1 102:0.822 103:0.066 104:0.244 105:1 106:1 107:1 108:1 109:1 110:1 111:1 112:1 113:0.444 114:0.066 115:0.066 116:0.444 117:1 118:1 119:0.8 120:0.066 121:0.244 122:1 123:1 124:1 125:1 126:1 127:1 128:1 129:0.222 130:0.066 131:0.066 132:0.266 133:0.822 134:1 135:1 136:1 137:0.066 138:0.444 139:1 140:1 141:1 142:0.288 143:1 144:1 145:0.422 146:0.066 147:0.066 148:0.066 149:0.622 150:1 151:0.696 152:1 153:1 154:0.066 155:0.622 156:1 157:1 158:1 159:1 160:1 161:0.444 162:0.066 163:0.066 164:0.066 165:0.622 166:1 167:1 168:1 169:1 170:1 171:0.066 172:0.822 173:1 174:1 175:1 176:1 177:0.244 178:0.066 179:0.066 180:0.244 181:0.622 182:1 183:1 184:0.776 185:1 186:1 187:1 188:0.066 189:0.8 190:0.644 191:1 192:1 193:0.244 194:0.066 195:0.066 196:0.266 197:0.822 198:1 199:1 200:1 201:1 202:1 203:1 204:1 205:0.066 206:1 207:1 208:1 209:0.444 210:0.066 211:0.066 212:0.066 213:0.422 214:0.822 215:0.8 216:0.822 217:0.8 218:1 219:1 220:1 221:1 222:0.266 223:1 224:1 225:1 226:0.266 227:0.066 228:0.066 229:0.066 230:0.066 231:0.066 232:0.066 233:0.066 234:0.066 235:0.244 236:1 237:1 238:1 239:0.244 240:1 241:1 242:0.622 243:0.066 244:0.066 245:0.066 246:0.066 247:0.066 248:0.066 249:0.066 250:0.066 251:0.066 252:0.266 253:1 254:0.328 255:1 256:0.126 257:0.54 258:1 259:1 260:1 261:0.822 262:0.822 263:0.822 264:0.822 265:0.8 266:0.622 267:0.622 268:0.622 269:0.622 270:0.798 271:1 272:1 273:0.622 274:1 275:0.52 276:1 277:1 278:1 279:1 280:1 281:1 282:1 283:1 284:1 285:1 286:1 287:1 288:1 289:1 290:1 291:1 292:1 293:1 294:1 295:1 296:1 297:1 298:1 299:1 300:1 301:1 302:1 303:1 304:1 305:1 306:1 307:1 308:1 309:1 310:1 311:1 312:1 313:1 314:1 315:1 316:1 317:1 318:1 319:1 320:1 321:1 322:1 323:1 324:1 325:1 326:1 327:1 328:1 329:1 330:1 331:1 332:1 333:1 334:1 335:1 336:1 337:1 338:1 339:0.674 340:1 341:1 342:1 343:1 344:1 345:1 346:1 347:1 348:1 349:1 350:1 351:1 352:1 353:1 354:1 355:1 356:1 357:1 
0 0 9.235620273734842e-05 0 0.006699690975699668 0.001781482991065722 0 0 0 0.001101851767006257 0 0 0.006962649671169733 0.002540728912285393 0 0 0.009536787349563255 0 0 8.624901894347193e-05 0 0 0.008421738555388719 0 0.004514162195443402 0.009049115614756149 0 0 0 0 0 0 0.001818763127055019 1:1 2:1 3:1 4:1 5:1 6:1 7:1 8:1 9:1 10:1 11:1 12:1 13:1 14:1 15:1 16:1 17:1 18:1 19:1 20:1 21:1 22:1 23:1 24:0.622 25:0.244 26:0.266 27:0.244 28:0.266 29:0.444 30:1 31:0.118 32:1 33:1 34:1 35:1 36:1 37:1 38:1 39:1 40:0.266 41:0.066 42:0.066 43:0.066 44:0.066 45:0.066 46:0.066 47:0.244 48:1 49:1 50:1 51:1 52:1 53:1 54:1 55:1 56:0.644 57:0.066 58:0.066 59:0.244 60:0.622 61:0.066 62:0.266 63:0.066 64:0.066 65:0.622 66:1 67:1 68:1 69:1 70:1 71:1 72:0.386 73:0.244 74:0.066 75:0.066 76:0.822 77:1 78:1 79:0.622 80:0.066 81:0.066 82:0.266 83:1 84:1 85:1 86:1 87:1 88:1 89:1 90:0.622 91:0.622 92:0.444 93:1 94:1 95:0.66 96:1 97:0.244 98:0.066 99:0.244 100:1 101:1 102:1 103:1 104:1 105:1 106:1 107:1 108:1 109:1 110:1 111:1 112:1 113:0.622 114:0.066 115:0.066 116:0.444 117:1 118:1 119:1 120:1 121:0.838 122:1 123:1 124:1 125:1 126:1 127:1 128:1 129:1 130:0.444 131:0.066 132:0.066 133:0.8 134:1 135:0.814 136:1 137:0.652 138:1 139:1 140:1 141:1 142:1 143:1 144:1 145:1 146:0.266 147:0.066 148:0.066 149:0.066 150:1 151:1 152:1 153:1 154:1 155:1 156:1 157:0.164 158:1 159:1 160:1 161:0.8 162:0.444 163:0.066 164:0.066 165:0.244 166:0.54 167:1 168:0.636 169:1 170:1 171:1 172:1 173:1 174:1 175:1 176:1 177:0.8 178:0.244 179:0.066 180:0.066 181:0.244 182:1 183:1 184:1 185:1 186:1 187:1 188:0.384 189:1 190:1 191:1 192:1 193:0.8 194:0.244 195:0.066 196:0.066 197:0.126 198:1 199:1 200:1 201:1 202:1 203:1 204:1 205:1 206:1 207:1 208:1 209:1 210:0.266 211:0.066 212:0.066 213:0.422 214:1 215:1 216:1 217:1 218:1 219:1 220:1 221:1 222:1 223:1 224:1 225:1 226:0.444 227:0.066 228:0.066 229:0.066 230:0.622 231:0.444 232:0.622 233:0.444 234:0.622 235:0.622 236:1 237:1 238:1 239:0.148 240:1 241:1 242:1 243:0.066 244:0.066 245:0.066 246:0.066 247:0.066 248:0.066 249:0.066 250:0.066 251:0.066 252:0.266 253:1 254:1 255:1 256:1 257:0.794 258:1 259:0.622 260:0.266 261:0.244 262:0.266 263:0.244 264:0.266 265:0.244 266:0.066 267:0.066 268:0.066 269:0.244 270:1 271:1 272:1 273:1 274:1 275:1 276:1 277:1 278:1 279:1 280:1 281:1 282:1 283:0.8 284:0.822 285:0.8 286:0.822 287:1 288:1 289:1 290:0.38 291:1 292:1 293:1 294:1 295:0.416 296:1 297:1 298:1 299:1 300:1 301:1 302:1 303:1 304:1 305:1 306:1 307:1 308:1 309:0.8 310:1 311:1 312:1 313:1 314:1 315:1 316:1 317:1 318:1 319:1 320:0.578 321:0.476 322:1 323:1 324:1 325:1 326:1 327:1 328:1 329:1 330:1 331:1 332:1 333:1 334:1 335:1 336:1 337:1 338:1 339:1 340:1 341:1 342:1 343:1 344:1 345:1 346:1 347:1 348:1 349:1 350:1 351:1 352:1 353:1 354:1 355:0.082 356:1 357:1 
0 0 0 0 0 0.005801779846039414 0 0 0 0 0.0003514311881892339 0.002123333482451675 0 0.002805554646993276 0 0 0.02206454059263947 0 0 0 0 0 0 0 0.002004023937924425 0.006673655076166458 0.009713156513058015 0 0 0 0 0 0 1:1 2:1 3:1 4:1 5:1 6:1 7:0.622 8:0.066 9:0.244 10:0.444 11:0.622 12:1 13:1 14:1 15:1 16:1 17:1 18:1 19:1 20:0.642 21:1 22:0.822 23:0.244 24:0.066 25:0.066 26:0.066 27:0.066 28:0.066 29:0.444 30:1 31:1 32:1 33:1 34:1 35:1 36:1 37:0.236 38:0.8 39:0.066 40:0.066 41:0.066 42:0.244 43:0.066 44:0.066 45:0.066 46:0.066 47:0.8 48:1 49:1 50:1 51:1 52:1 53:1 54:1 55:0.244 56:0.066 57:0.244 58:0.822 59:1 60:1 61:0.066 62:0.066 63:0.066 64:0.622 65:1 66:1 67:1 68:0.734 69:1 70:1 71:1 72:0.244 73:0.066 74:0.266 75:1 76:1 77:1 78:0.822 79:0.066 80:0.066 81:0.244 82:1 83:1 84:1 85:0.622 86:1 87:1 88:1 89:0.066 90:0.066 91:0.244 92:1 93:1 94:1 95:0.822 96:0.066 97:0.066 98:0.444 99:1 100:1 101:1 102:0.822 103:0.066 104:1 105:1 106:0.622 107:0.8 108:1 109:1 110:1 111:1 112:0.622 113:0.066 114:0.066 115:0.622 116:1 117:1 118:1 119:1 120:0.066 121:0.444 122:1 123:1 124:1 125:1 126:1 127:1 128:1 129:0.244 130:0.066 131:0.244 132:1 133:1 134:1 135:1 136:1 137:0.066 138:0.622 139:1 140:1 141:1 142:1 143:1 144:1 145:0.622 146:0.066 147:0.066 148:0.444 149:1 150:1 151:1 152:1 153:1 154:0.066 155:0.444 156:1 157:1 158:1 159:1 160:1 161:1 162:0.244 163:0.066 164:0.266 165:0.822 166:1 167:1 168:1 169:1 170:0.822 171:0.066 172:0.622 173:1 174:1 175:1 176:1 177:1 178:0.622 179:0.066 180:0.066 181:0.244 182:1 183:1 184:1 185:1 186:1 187:0.244 188:0.066 189:0.444 190:1 191:1 192:1 193:1 194:1 195:0.244 196:0.066 197:0.244 198:0.56 199:1 200:0.822 201:0.444 202:0.266 203:0.622 204:0.266 205:0.066 206:0.622 207:1 208:1 209:1 210:1 211:0.8 212:0.066 213:0.066 214:0.266 215:0.444 216:0.244 217:0.066 218:0.066 219:0.066 220:0.266 221:0.066 222:0.066 223:0.244 224:1 225:1 226:1 227:1 228:0.622 229:0.066 230:0.066 231:0.066 232:0.066 233:0.066 234:0.066 235:0.066 236:0.266 237:0.066 238:0.444 239:0.066 240:0.622 241:1 242:0.556 243:1 244:0.342 245:0.244 246:0.066 247:0.066 248:0.066 249:0.066 250:0.244 251:0.066 252:0.822 253:0.472 254:1 255:0.622 256:0.066 257:0.444 258:1 259:1 260:1 261:1 262:0.066 263:0.066 264:0.266 265:0.244 266:0.822 267:0.38 268:1 269:1 270:1 271:1 272:1 273:0.8 274:0.8 275:1 276:1 277:1 278:1 279:0.444 280:0.622 281:0.8 282:1 283:1 284:1 285:1 286:1 287:1 288:1 289:1 290:1 291:1 292:1 293:1 294:1 295:1 296:1 297:1 298:1 299:1 300:1 301:1 302:1 303:1 304:1 305:1 306:1 307:1 308:1 309:1 310:1 311:1 312:1 313:1 314:1 315:1 316:1 317:1 318:1 319:1 320:1 321:1 322:1 323:1 324:1 325:1 326:1 327:1 328:1 329:1 330:1 331:1 332:1 333:1 334:1 335:1 336:1 337:1 338:1 339:1 340:1 341:1 342:1 343:1 344:1 345:1 346:0.484 347:1 348:1 349:1 350:1 351:1 352:1 353:0.8 354:1 355:1 356:0.658 357:1 
0 0.00670543988400852 0 0 0 0 0 0 0 0 0 0.0005868209437223344 0 0 0 0 0 0 0 0 0 0 0 0 0 0 0 0 0 0 0 0 0 1:1 2:1 3:1 4:1 5:1 6:1 7:0.622 8:0.126 9:0.444 10:0.822 11:1 12:1 13:1 14:1 15:1 16:1 17:1 18:1 19:1 20:1 21:1 22:0.126 23:0.244 24:0.066 25:0.066 26:0.066 27:0.066 28:0.266 29:1 30:1 31:1 32:1 33:0.592 34:1 35:1 36:1 37:1 38:0.066 39:0.066 40:0.066 41:0.066 42:0.244 43:0.066 44:0.066 45:0.066 46:0.444 47:1 48:1 49:1 50:1 51:1 52:0.934 53:1 54:1 55:0.244 56:0.066 57:0.244 58:0.822 59:1 60:0.822 61:0.244 62:0.066 63:0.066 64:1 65:1 66:1 67:1 68:1 69:1 70:1 71:0.622 72:0.066 73:0.066 74:0.244 75:1 76:1 77:1 78:0.444 79:0.066 80:0.066 81:0.444 82:1 83:1 84:1 85:1 86:1 87:1 88:0.622 89:0.244 90:0.266 91:0.622 92:1 93:1 94:1 95:0.444 96:0.066 97:0.066 98:0.644 99:1 100:1 101:1 102:0.444 103:1 104:1 105:0.8 106:1 107:1 108:1 109:1 110:1 111:1 112:0.444 113:0.066 114:0.066 115:0.8 116:0.402 117:1 118:0.622 119:0.066 120:1 121:1 122:0.518 123:1 124:1 125:1 126:1 127:1 128:0.822 129:0.066 130:0.066 131:0.066 132:1 133:1 134:1 135:0.244 136:0.066 137:1 138:0.978 139:1 140:1 141:1 142:1 143:1 144:1 145:0.244 146:0.066 147:0.066 148:0.822 149:1 150:1 151:0.622 152:0.066 153:0.066 154:1 155:1 156:1 157:1 158:1 159:1 160:1 161:0.444 162:0.066 163:0.066 164:0.444 165:1 166:1 167:1 168:0.622 169:0.066 170:0.066 171:1 172:1 173:1 174:1 175:1 176:1 177:0.622 178:0.066 179:0.066 180:0.244 181:0.8 182:1 183:1 184:1 185:0.066 186:0.066 187:0.066 188:1 189:1 190:1 191:1 192:1 193:1 194:0.444 195:0.066 196:0.066 197:0.622 198:1 199:1 200:1 201:1 202:0.444 203:0.066 204:0.066 205:1 206:1 207:1 208:1 209:1 210:0.622 211:0.066 212:0.066 213:0.422 214:1 215:0.8 216:0.622 217:0.422 218:0.266 219:0.444 220:0.066 221:0.066 222:1 223:1 224:1 225:1 226:1 227:0.244 228:0.066 229:0.066 230:0.266 231:0.066 232:0.066 233:0.066 234:0.066 235:0.066 236:0.644 237:0.066 238:0.066 239:1 240:1 241:1 242:1 243:0.622 244:0.066 245:0.066 246:0.066 247:0.066 248:0.066 249:0.066 250:0.066 251:0.066 252:0.244 253:0.444 254:0.822 255:0.066 256:1 257:1 258:1 259:1 260:0.622 261:0.066 262:0.066 263:0.066 264:0.266 265:0.244 266:0.444 267:0.622 268:1 269:1 270:1 271:1 272:1 273:1 274:1 275:1 276:1 277:0.044 278:0.444 279:0.444 280:0.822 281:1 282:1 283:1 284:1 285:1 286:1 287:1 288:1 289:1 290:1 291:0.672 292:1 293:1 294:1 295:1 296:1 297:1 298:1 299:1 300:1 301:1 302:1 303:1 304:1 305:1 306:1 307:1 308:1 309:1 310:1 311:1 312:1 313:1 314:1 315:1 316:1 317:1 318:1 319:1 320:1 321:1 322:1 323:1 324:0.622 325:1 326:1 327:1 328:1 329:1 330:1 331:1 332:1 333:1 334:0.498 335:1 336:1 337:1 338:1 339:1 340:1 341:1 342:1 343:1 344:1 345:1 346:0.598 347:1 348:1 349:1 350:1 351:1 352:1 353:1 354:1 355:1 356:1 357:1 
-0 0 0.02044445098414601 0 0 0.002890468991788294 0 0 0 0 0 0.004566543343586603 0.0233186480246899 0 0 0 0 0.00523921278483485 0.0001993287893036335 0 0 0 0 0 0 0.0006294454380570561 0.001864081068509031 0 0 0 0 0 0 1:1 2:1 3:1 4:1 5:1 6:1 7:0.582 8:1 9:1 10:1 11:1 12:1 13:1 14:1 15:1 16:1 17:0.354 18:1 19:1 20:1 21:1 22:1 23:1 24:1 25:1 26:1 27:1 28:0.446 29:0.32 30:1 31:1 32:1 33:1 34:0.438 35:1 36:1 37:1 38:1 39:1 40:1 41:1 42:1 43:1 44:1 45:1 46:1 47:1 48:1 49:1 50:1 51:1 52:0.822 53:0.622 54:1 55:0.328 56:1 57:1 58:1 59:0.896 60:1 61:1 62:1 63:1 64:1 65:1 66:1 67:1 68:0.822 69:0.066 70:0.444 71:1 72:1 73:1 74:1 75:1 76:1 77:1 78:1 79:0.822 80:0.822 81:1 82:1 83:1 84:1 85:0.8 86:0.066 87:0.622 88:1 89:1 90:1 91:1 92:0.444 93:0.066 94:0.266 95:0.066 96:0.266 97:0.066 98:0.266 99:0.822 100:0.836 101:1 102:1 103:0.066 104:0.822 105:1 106:1 107:1 108:1 109:0.244 110:0.066 111:0.066 112:0.244 113:0.066 114:0.066 115:0.066 116:1 117:1 118:0.716 119:1 120:0.266 121:1 122:1 123:1 124:1 125:1 126:0.444 127:0.066 128:0.066 129:0.244 130:0.644 131:0.622 132:0.622 133:1 134:1 135:1 136:1 137:0.244 138:1 139:1 140:1 141:1 142:1 143:0.244 144:0.066 145:0.066 146:0.444 147:1 148:1 149:1 150:1 151:1 152:1 153:1 154:0.644 155:1 156:1 157:1 158:1 159:1 160:0.266 161:0.066 162:0.066 163:0.822 164:1 165:1 166:0.644 167:1 168:0.32 169:0.436 170:1 171:0.8 172:1 173:1 174:1 175:1 176:0.8 177:0.244 178:0.066 179:0.066 180:0.822 181:1 182:1 183:1 184:1 185:1 186:1 187:1 188:1 189:1 190:1 191:1 192:1 193:1 194:0.444 195:0.066 196:0.066 197:0.8 198:1 199:1 200:1 201:1 202:1 203:1 204:0.52 205:1 206:1 207:1 208:1 209:1 210:1 211:0.244 212:0.066 213:0.066 214:0.822 215:1 216:1 217:0.366 218:1 219:1 220:1 221:1 222:1 223:0.464 224:1 225:1 226:1 227:1 228:0.266 229:0.066 230:0.066 231:0.8 232:1 233:1 234:1 235:1 236:1 237:1 238:1 239:1 240:1 241:1 242:1 243:1 244:1 245:0.244 246:0.066 247:0.066 248:0.822 249:1 250:1 251:0.506 252:1 253:1 254:1 255:1 256:1 257:1 258:0.444 259:1 260:0.518 261:1 262:0.644 263:0.244 264:0.266 265:0.066 266:1 267:1 268:1 269:0.32 270:1 271:1 272:1 273:1 274:1 275:1 276:1 277:1 278:1 279:1 280:1 281:1 282:0.502 283:1 284:0.422 285:1 286:1 287:1 288:1 289:1 290:1 291:1 292:1 293:1 294:1 295:1 296:1 297:1 298:1 299:1 300:1 301:0.66 302:1 303:1 304:1 305:1 306:1 307:1 308:1 309:1 310:1 311:0.756 312:1 313:1 314:1 315:1 316:1 317:1 318:1 319:1 320:1 321:1 322:1 323:1 324:1 325:1 326:1 327:1 328:1 329:1 330:1 331:1 332:1 333:1 334:1 335:1 336:1 337:1 338:1 339:1 340:1 341:1 342:1 343:1 344:1 345:1 346:1 347:1 348:1 349:1 350:1 351:1 352:1 353:1 354:1 355:1 356:1 357:1 
-0 0 0 0 0.00436356829581751 0.0008669866766021483 0 0 0 0 0 0.01957228683585967 0.04805394423923837 0 0 0 0.002578728557481159 0.008704726259848149 0 0 0 0 0.001145234979624447 0 0.02150071161630841 0 0.006742155654501711 0 0 0 0 0 0 1:1 2:1 3:1 4:1 5:1 6:1 7:1 8:1 9:1 10:1 11:1 12:1 13:1 14:0.496 15:1 16:1 17:1 18:1 19:1 20:1 21:1 22:1 23:1 24:1 25:1 26:1 27:0.674 28:1 29:1 30:1 31:1 32:1 33:0.622 34:0.644 35:1 36:1 37:1 38:1 39:1 40:1 41:1 42:1 43:1 44:1 45:0.8 46:1 47:1 48:1 49:0.066 50:0.066 51:0.066 52:1 53:1 54:0.694 55:1 56:1 57:1 58:1 59:1 60:0.444 61:0.244 62:0.066 63:0.822 64:1 65:1 66:0.444 67:0.066 68:0.066 69:1 70:1 71:1 72:1 73:1 74:0.184 75:0.066 76:0.822 77:0.066 78:0.066 79:0.066 80:0.104 81:1 82:1 83:0.622 84:0.066 85:0.066 86:0.696 87:1 88:1 89:1 90:0.622 91:0.066 92:0.066 93:0.244 94:0.066 95:0.266 96:0.622 97:1 98:0.858 99:1 100:1 101:0.066 102:0.066 103:1 104:1 105:1 106:1 107:0.8 108:0.244 109:0.066 110:0.066 111:0.244 112:1 113:1 114:1 115:1 116:1 117:1 118:0.244 119:0.066 120:1 121:1 122:1 123:1 124:1 125:0.244 126:0.066 127:0.066 128:0.444 129:1 130:1 131:1 132:1 133:1 134:1 135:0.444 136:0.066 137:1 138:0.228 139:1 140:1 141:1 142:0.622 143:0.066 144:0.066 145:0.066 146:1 147:1 148:1 149:1 150:1 151:1 152:0.822 153:0.066 154:1 155:1 156:0.682 157:1 158:1 159:1 160:0.266 161:0.066 162:0.066 163:0.822 164:1 165:1 166:1 167:1 168:1 169:1 170:0.244 171:1 172:1 173:0.516 174:1 175:1 176:1 177:0.244 178:0.066 179:0.066 180:0.444 181:1 182:1 183:1 184:1 185:1 186:1 187:0.444 188:1 189:1 190:1 191:1 192:1 193:1 194:1 195:0.066 196:0.066 197:0.244 198:1 199:0.704 200:1 201:1 202:1 203:1 204:1 205:1 206:0.912 207:1 208:1 209:1 210:1 211:1 212:0.266 213:0.066 214:0.066 215:0.622 216:1 217:1 218:1 219:1 220:1 221:1 222:1 223:1 224:1 225:1 226:1 227:1 228:1 229:0.622 230:0.066 231:0.066 232:0.444 233:1 234:1 235:1 236:1 237:1 238:1 239:1 240:1 241:1 242:1 243:1 244:1 245:1 246:1 247:0.066 248:0.244 249:0.244 250:0.624 251:1 252:1 253:1 254:1 255:1 256:1 257:1 258:1 259:1 260:1 261:1 262:1 263:1 264:0.822 265:1 266:1 267:1 268:1 269:0.386 270:1 271:1 272:1 273:1 274:1 275:1 276:1 277:1 278:1 279:1 280:1 281:1 282:1 283:1 284:1 285:1 286:1 287:1 288:1 289:1 290:1 291:1 292:1 293:1 294:1 295:1 296:1 297:1 298:1 299:1 300:1 301:1 302:1 303:1 304:1 305:1 306:0.564 307:1 308:1 309:1 310:1 311:1 312:1 313:1 314:1 315:1 316:1 317:0.142 318:0.496 319:1 320:1 321:1 322:0.658 323:1 324:1 325:1 326:1 327:1 328:1 329:1 330:1 331:1 332:1 333:1 334:1 335:1 336:1 337:1 338:1 339:1 340:1 341:1 342:1 343:1 344:1 345:1 346:0.712 347:1 348:0.482 349:1 350:1 351:1 352:1 353:1 354:1 355:1 356:1 357:1 
-0.01379841483374833 0 0.02999964090080567 0 0 0.01432613415430395 0 0 0 0 0 0.01717352294683123 0.05734625304180785 0 0 0 0.01358920969759912 0.002370882029855428 0 0 4.8570658998519e-05 0 0 0 0.05179481804371787 0.008755680445533098 0.03483115589417565 0 0 0 0 0 0 1:1 2:1 3:1 4:1 5:1 6:1 7:1 8:1 9:1 10:0.364 11:1 12:1 13:1 14:1 15:1 16:1 17:1 18:1 19:1 20:0.858 21:1 22:1 23:1 24:1 25:1 26:0.838 27:1 28:1 29:1 30:1 31:1 32:1 33:1 34:1 35:0.066 36:0.622 37:1 38:1 39:1 40:1 41:1 42:1 43:1 44:0.328 45:1 46:0.446 47:1 48:1 49:1 50:1 51:1 52:0.266 53:0.822 54:1 55:1 56:1 57:1 58:0.364 59:1 60:1 61:1 62:1 63:1 64:1 65:1 66:0.526 67:1 68:1 69:0.422 70:1 71:1 72:1 73:0.066 74:1 75:1 76:0.622 77:0.444 78:0.822 79:0.258 80:1 81:1 82:1 83:1 84:1 85:1 86:1 87:1 88:1 89:1 90:1 91:1 92:1 93:0.244 94:0.066 95:0.244 96:0.304 97:0.066 98:0.266 99:0.444 100:1 101:1 102:0.266 103:1 104:1 105:1 106:1 107:1 108:1 109:1 110:0.244 111:0.066 112:0.066 113:0.066 114:0.066 115:0.066 116:0.244 117:1 118:1 119:1 120:1 121:1 122:1 123:1 124:1 125:1 126:0.822 127:0.066 128:0.066 129:0.066 130:0.444 131:0.622 132:0.444 133:0.622 134:0.502 135:1 136:1 137:1 138:1 139:0.23 140:1 141:1 142:1 143:0.622 144:0.066 145:0.066 146:0.266 147:0.446 148:1 149:1 150:1 151:1 152:1 153:1 154:1 155:0.852 156:1 157:1 158:1 159:1 160:0.622 161:0.066 162:0.066 163:0.444 164:1 165:1 166:1 167:1 168:1 169:1 170:1 171:1 172:1 173:1 174:1 175:1 176:1 177:0.244 178:0.066 179:0.066 180:0.822 181:1 182:1 183:1 184:1 185:1 186:1 187:1 188:1 189:1 190:1 191:1 192:1 193:1 194:0.266 195:0.066 196:0.266 197:1 198:1 199:1 200:1 201:1 202:0.222 203:1 204:1 205:1 206:1 207:1 208:1 209:1 210:1 211:0.066 212:0.066 213:0.244 214:1 215:1 216:1 217:0.442 218:1 219:1 220:1 221:0.304 222:1 223:1 224:1 225:1 226:1 227:0.8 228:0.066 229:0.066 230:0.444 231:1 232:1 233:0.386 234:1 235:1 236:1 237:1 238:1 239:1 240:1 241:1 242:1 243:1 244:0.622 245:0.066 246:0.066 247:0.444 248:1 249:1 250:1 251:1 252:1 253:1 254:1 255:1 256:1 257:1 258:1 259:1 260:1 261:0.822 262:0.622 263:0.444 264:0.822 265:1 266:1 267:1 268:1 269:1 270:1 271:0.694 272:1 273:1 274:1 275:1 276:1 277:1 278:1 279:1 280:1 281:1 282:0.578 283:1 284:1 285:0.376 286:1 287:1 288:0.326 289:1 290:1 291:1 292:1 293:1 294:1 295:0.676 296:1 297:1 298:1 299:1 300:1 301:1 302:1 303:1 304:0.792 305:1 306:1 307:1 308:1 309:1 310:1 311:0.696 312:1 313:1 314:1 315:1 316:1 317:1 318:1 319:0.526 320:1 321:1 322:1 323:1 324:1 325:1 326:1 327:1 328:1 329:1 330:1 331:1 332:1 333:1 334:1 335:1 336:1 337:1 338:1 339:1 340:1 341:1 342:0.642 343:1 344:1 345:1 346:0.32 347:1 348:1 349:1 350:1 351:1 352:0.444 353:1 354:0.322 355:1 356:1 357:0.778 
-0 0 0 0 0 0 0 0 0 0 0 0 0.01132455453996036 0 0 0 0 0 0 0 0 0 0 0 0 0 0 0 0 0 0 0 0 1:1 2:1 3:1 4:1 5:1 6:1 7:1 8:1 9:1 10:1 11:1 12:1 13:1 14:1 15:1 16:1 17:0.534 18:1 19:1 20:1 21:1 22:1 23:1 24:1 25:1 26:1 27:1 28:1 29:1 30:1 31:1 32:1 33:1 34:0.266 35:1 36:1 37:1 38:1 39:1 40:1 41:1 42:1 43:1 44:1 45:0.66 46:1 47:1 48:1 49:1 50:1 51:0.066 52:1 53:1 54:1 55:1 56:1 57:1 58:1 59:1 60:1 61:1 62:1 63:1 64:1 65:0.446 66:1 67:1 68:1 69:1 70:1 71:1 72:1 73:1 74:1 75:0.8 76:0.444 77:0.444 78:0.822 79:0.822 80:0.822 81:0.8 82:1 83:1 84:1 85:1 86:1 87:0.18 88:1 89:0.54 90:1 91:1 92:0.622 93:0.066 94:0.066 95:0.622 96:0.266 97:0.066 98:0.066 99:0.444 100:1 101:1 102:1 103:1 104:1 105:1 106:1 107:1 108:1 109:0.444 110:0.066 111:0.066 112:0.244 113:0.066 114:0.066 115:0.066 116:0.822 117:1 118:1 119:1 120:1 121:1 122:1 123:1 124:1 125:1 126:0.444 127:0.066 128:0.066 129:0.244 130:0.822 131:0.8 132:0.622 133:1 134:1 135:1 136:1 137:1 138:1 139:1 140:1 141:1 142:1 143:0.244 144:0.066 145:0.066 146:0.622 147:1 148:1 149:1 150:1 151:1 152:1 153:1 154:0.624 155:1 156:1 157:1 158:1 159:1 160:0.266 161:0.066 162:0.266 163:1 164:1 165:1 166:1 167:1 168:1 169:1 170:1 171:1 172:1 173:1 174:1 175:1 176:1 177:0.066 178:0.066 179:0.066 180:1 181:1 182:0.118 183:1 184:1 185:0.4 186:0.636 187:0.088 188:1 189:1 190:1 191:1 192:1 193:0.822 194:0.066 195:0.066 196:0.266 197:1 198:1 199:1 200:1 201:1 202:1 203:1 204:1 205:1 206:1 207:1 208:1 209:1 210:0.822 211:0.066 212:0.066 213:0.044 214:1 215:1 216:1 217:1 218:1 219:1 220:0.458 221:1 222:1 223:1 224:1 225:1 226:1 227:0.622 228:0.066 229:0.066 230:0.622 231:1 232:1 233:1 234:1 235:1 236:1 237:1 238:1 239:1 240:1 241:1 242:1 243:1 244:0.622 245:0.066 246:0.066 247:0.622 248:1 249:1 250:1 251:1 252:1 253:1 254:0.366 255:1 256:1 257:1 258:1 259:1 260:0.798 261:1 262:0.822 263:0.622 264:1 265:1 266:0.598 267:1 268:1 269:1 270:1 271:1 272:1 273:1 274:1 275:1 276:1 277:1 278:1 279:1 280:0.776 281:1 282:1 283:1 284:1 285:1 286:1 287:1 288:1 289:1 290:1 291:1 292:1 293:1 294:1 295:1 296:1 297:1 298:1 299:1 300:1 301:1 302:1 303:1 304:1 305:1 306:1 307:1 308:0.518 309:1 310:1 311:1 312:1 313:1 314:1 315:1 316:0.384 317:1 318:1 319:1 320:1 321:1 322:1 323:1 324:1 325:0.858 326:1 327:1 328:1 329:1 330:1 331:1 332:1 333:1 334:1 335:1 336:1 337:1 338:1 339:1 340:1 341:1 342:1 343:1 344:1 345:1 346:1 347:1 348:1 349:1 350:1 351:1 352:1 353:1 354:1 355:1 356:1 357:1 
